Patient,ctclip_0,ctclip_1,ctclip_2,ctclip_3,ctclip_4,ctclip_5,ctclip_6,ctclip_7,ctclip_8,ctclip_9,ctclip_10,ctclip_11,ctclip_12,ctclip_13,ctclip_14,ctclip_15,ctclip_16,ctclip_17,ctclip_18,ctclip_19,ctclip_20,ctclip_21,ctclip_22,ctclip_23,ctclip_24,ctclip_25,ctclip_26,ctclip_27,ctclip_28,ctclip_29,ctclip_30,ctclip_31,ctclip_32,ctclip_33,ctclip_34,ctclip_35,ctclip_36,ctclip_37,ctclip_38,ctclip_39,ctclip_40,ctclip_41,ctclip_42,ctclip_43,ctclip_44,ctclip_45,ctclip_46,ctclip_47,ctclip_48,ctclip_49,ctclip_50,ctclip_51,ctclip_52,ctclip_53,ctclip_54,ctclip_55,ctclip_56,ctclip_57,ctclip_58,ctclip_59,ctclip_60,ctclip_61,ctclip_62,ctclip_63,ctclip_64,ctclip_65,ctclip_66,ctclip_67,ctclip_68,ctclip_69,ctclip_70,ctclip_71,ctclip_72,ctclip_73,ctclip_74,ctclip_75,ctclip_76,ctclip_77,ctclip_78,ctclip_79,ctclip_80,ctclip_81,ctclip_82,ctclip_83,ctclip_84,ctclip_85,ctclip_86,ctclip_87,ctclip_88,ctclip_89,ctclip_90,ctclip_91,ctclip_92,ctclip_93,ctclip_94,ctclip_95,ctclip_96,ctclip_97,ctclip_98,ctclip_99,ctclip_100,ctclip_101,ctclip_102,ctclip_103,ctclip_104,ctclip_105,ctclip_106,ctclip_107,ctclip_108,ctclip_109,ctclip_110,ctclip_111,ctclip_112,ctclip_113,ctclip_114,ctclip_115,ctclip_116,ctclip_117,ctclip_118,ctclip_119,ctclip_120,ctclip_121,ctclip_122,ctclip_123,ctclip_124,ctclip_125,ctclip_126,ctclip_127,ctclip_128,ctclip_129,ctclip_130,ctclip_131,ctclip_132,ctclip_133,ctclip_134,ctclip_135,ctclip_136,ctclip_137,ctclip_138,ctclip_139,ctclip_140,ctclip_141,ctclip_142,ctclip_143,ctclip_144,ctclip_145,ctclip_146,ctclip_147,ctclip_148,ctclip_149,ctclip_150,ctclip_151,ctclip_152,ctclip_153,ctclip_154,ctclip_155,ctclip_156,ctclip_157,ctclip_158,ctclip_159,ctclip_160,ctclip_161,ctclip_162,ctclip_163,ctclip_164,ctclip_165,ctclip_166,ctclip_167,ctclip_168,ctclip_169,ctclip_170,ctclip_171,ctclip_172,ctclip_173,ctclip_174,ctclip_175,ctclip_176,ctclip_177,ctclip_178,ctclip_179,ctclip_180,ctclip_181,ctclip_182,ctclip_183,ctclip_184,ctclip_185,ctclip_186,ctclip_187,ctclip_188,ctclip_189,ctclip_190,ctclip_191,ctclip_192,ctclip_193,ctclip_194,ctclip_195,ctclip_196,ctclip_197,ctclip_198,ctclip_199,ctclip_200,ctclip_201,ctclip_202,ctclip_203,ctclip_204,ctclip_205,ctclip_206,ctclip_207,ctclip_208,ctclip_209,ctclip_210,ctclip_211,ctclip_212,ctclip_213,ctclip_214,ctclip_215,ctclip_216,ctclip_217,ctclip_218,ctclip_219,ctclip_220,ctclip_221,ctclip_222,ctclip_223,ctclip_224,ctclip_225,ctclip_226,ctclip_227,ctclip_228,ctclip_229,ctclip_230,ctclip_231,ctclip_232,ctclip_233,ctclip_234,ctclip_235,ctclip_236,ctclip_237,ctclip_238,ctclip_239,ctclip_240,ctclip_241,ctclip_242,ctclip_243,ctclip_244,ctclip_245,ctclip_246,ctclip_247,ctclip_248,ctclip_249,ctclip_250,ctclip_251,ctclip_252,ctclip_253,ctclip_254,ctclip_255,ctclip_256,ctclip_257,ctclip_258,ctclip_259,ctclip_260,ctclip_261,ctclip_262,ctclip_263,ctclip_264,ctclip_265,ctclip_266,ctclip_267,ctclip_268,ctclip_269,ctclip_270,ctclip_271,ctclip_272,ctclip_273,ctclip_274,ctclip_275,ctclip_276,ctclip_277,ctclip_278,ctclip_279,ctclip_280,ctclip_281,ctclip_282,ctclip_283,ctclip_284,ctclip_285,ctclip_286,ctclip_287,ctclip_288,ctclip_289,ctclip_290,ctclip_291,ctclip_292,ctclip_293,ctclip_294,ctclip_295,ctclip_296,ctclip_297,ctclip_298,ctclip_299,ctclip_300,ctclip_301,ctclip_302,ctclip_303,ctclip_304,ctclip_305,ctclip_306,ctclip_307,ctclip_308,ctclip_309,ctclip_310,ctclip_311,ctclip_312,ctclip_313,ctclip_314,ctclip_315,ctclip_316,ctclip_317,ctclip_318,ctclip_319,ctclip_320,ctclip_321,ctclip_322,ctclip_323,ctclip_324,ctclip_325,ctclip_326,ctclip_327,ctclip_328,ctclip_329,ctclip_330,ctclip_331,ctclip_332,ctclip_333,ctclip_334,ctclip_335,ctclip_336,ctclip_337,ctclip_338,ctclip_339,ctclip_340,ctclip_341,ctclip_342,ctclip_343,ctclip_344,ctclip_345,ctclip_346,ctclip_347,ctclip_348,ctclip_349,ctclip_350,ctclip_351,ctclip_352,ctclip_353,ctclip_354,ctclip_355,ctclip_356,ctclip_357,ctclip_358,ctclip_359,ctclip_360,ctclip_361,ctclip_362,ctclip_363,ctclip_364,ctclip_365,ctclip_366,ctclip_367,ctclip_368,ctclip_369,ctclip_370,ctclip_371,ctclip_372,ctclip_373,ctclip_374,ctclip_375,ctclip_376,ctclip_377,ctclip_378,ctclip_379,ctclip_380,ctclip_381,ctclip_382,ctclip_383,ctclip_384,ctclip_385,ctclip_386,ctclip_387,ctclip_388,ctclip_389,ctclip_390,ctclip_391,ctclip_392,ctclip_393,ctclip_394,ctclip_395,ctclip_396,ctclip_397,ctclip_398,ctclip_399,ctclip_400,ctclip_401,ctclip_402,ctclip_403,ctclip_404,ctclip_405,ctclip_406,ctclip_407,ctclip_408,ctclip_409,ctclip_410,ctclip_411,ctclip_412,ctclip_413,ctclip_414,ctclip_415,ctclip_416,ctclip_417,ctclip_418,ctclip_419,ctclip_420,ctclip_421,ctclip_422,ctclip_423,ctclip_424,ctclip_425,ctclip_426,ctclip_427,ctclip_428,ctclip_429,ctclip_430,ctclip_431,ctclip_432,ctclip_433,ctclip_434,ctclip_435,ctclip_436,ctclip_437,ctclip_438,ctclip_439,ctclip_440,ctclip_441,ctclip_442,ctclip_443,ctclip_444,ctclip_445,ctclip_446,ctclip_447,ctclip_448,ctclip_449,ctclip_450,ctclip_451,ctclip_452,ctclip_453,ctclip_454,ctclip_455,ctclip_456,ctclip_457,ctclip_458,ctclip_459,ctclip_460,ctclip_461,ctclip_462,ctclip_463,ctclip_464,ctclip_465,ctclip_466,ctclip_467,ctclip_468,ctclip_469,ctclip_470,ctclip_471,ctclip_472,ctclip_473,ctclip_474,ctclip_475,ctclip_476,ctclip_477,ctclip_478,ctclip_479,ctclip_480,ctclip_481,ctclip_482,ctclip_483,ctclip_484,ctclip_485,ctclip_486,ctclip_487,ctclip_488,ctclip_489,ctclip_490,ctclip_491,ctclip_492,ctclip_493,ctclip_494,ctclip_495,ctclip_496,ctclip_497,ctclip_498,ctclip_499,ctclip_500,ctclip_501,ctclip_502,ctclip_503,ctclip_504,ctclip_505,ctclip_506,ctclip_507,ctclip_508,ctclip_509,ctclip_510,ctclip_511
ID00007637202177411956430,0.029210180044174194,-0.06231086701154709,-0.025755522772669792,-0.03792550042271614,0.00133542250841856,-0.010018057189881802,-0.04850151017308235,-0.07177389413118362,-0.011668969877064228,-0.02052059955894947,0.027477562427520752,0.03753677383065224,-0.014052135869860649,0.055548328906297684,-0.0019471673294901848,-0.047171030193567276,-0.04417480155825615,0.02209252119064331,0.002908764174208045,-0.012643374502658844,-0.013941606506705284,-0.05587701126933098,-0.0029455574695020914,0.016221003606915474,-0.039626479148864746,0.0897093191742897,-0.02271539904177189,0.01937098242342472,-0.01449462492018938,-0.0014105968875810504,0.027790140360593796,-0.06925555318593979,0.0033475335221737623,-0.04455501213669777,0.10128927230834961,-0.0855228453874588,0.002168531995266676,0.04248476400971413,-0.058249592781066895,0.029796024784445763,-0.03694656863808632,-0.06297123432159424,-0.05319199711084366,-0.016599927097558975,0.010775825940072536,-0.07696332782506943,-0.02310463786125183,-0.08463767915964127,0.015650609508156776,0.03952627629041672,-0.016471441835165024,0.0675421804189682,-0.06296088546514511,-0.098148874938488,0.0537935271859169,0.005837592761963606,-0.004934959579259157,0.03486602380871773,0.011007225140929222,0.03791094943881035,0.008254355750977993,-0.04843401163816452,0.01292022131383419,0.0096773412078619,-0.031719792634248734,-0.05631176754832268,-0.07848463952541351,0.0008732262649573386,-0.0059570870362222195,-0.01116189081221819,0.07569622248411179,0.05333265662193298,-0.06243758648633957,-0.054787226021289825,-0.0491345040500164,-0.02088722586631775,0.06819700449705124,0.06774789094924927,0.03255997598171234,0.014845330268144608,-0.03971036151051521,-0.00508329039439559,0.005609015468508005,-0.0022577636409550905,0.014807047322392464,-0.03952164202928543,-0.05354456603527069,0.032671086490154266,-0.03280056267976761,-0.0033358761575073004,-0.02862408570945263,-0.004591031465679407,-0.038737598806619644,-0.012868550606071949,-0.01489789504557848,0.011931898072361946,-0.00832127034664154,0.04498116299510002,0.007738096173852682,-0.05052832514047623,0.05219658464193344,-0.03693543002009392,-0.022662324830889702,-0.07787162065505981,0.07993379980325699,-0.029498526826500893,-0.026139942929148674,-0.0005336893373169005,0.018896471709012985,0.04226857051253319,-0.016626283526420593,0.06732320785522461,-0.024526087567210197,0.00632898835465312,0.039716724306344986,0.03835425153374672,0.04266809672117233,0.011134705506265163,0.06245839595794678,-0.08245270699262619,-0.021561218425631523,0.08708877861499786,-0.013615742325782776,-0.10348514467477798,0.035103969275951385,-0.05885938182473183,-0.072642482817173,-0.05294100567698479,0.05249927565455437,-0.02109229378402233,0.034058649092912674,0.01694446988403797,-0.03470640257000923,0.023662077262997627,0.03382525220513344,-0.017047913745045662,0.0013475891901180148,-0.04957003518939018,0.00531101506203413,0.09820777177810669,0.041280485689640045,-0.03170817717909813,-0.05588158592581749,-0.01787148416042328,0.01703031174838543,0.04873663932085037,0.036866694688797,0.04031294956803322,-0.0276283398270607,-0.0018923283787444234,-0.01595885679125786,-0.08133497089147568,0.07092763483524323,-0.034418120980262756,-0.006275918334722519,0.01881815865635872,-0.003093234496191144,-0.043470315635204315,0.05842646583914757,0.006481412332504988,0.017407044768333435,0.017571115866303444,-0.06083478406071663,0.05335712805390358,-0.03641294687986374,0.10005421191453934,0.020359143614768982,-0.0273030623793602,-0.010259369388222694,-0.02372892014682293,-0.05044916644692421,0.034050386399030685,0.05319893732666969,-0.0012383767170831561,0.020203465595841408,-0.013038484379649162,-0.01124974712729454,-0.026598574593663216,0.004959954414516687,0.017321482300758362,0.019616153091192245,0.02015892043709755,-0.07996980845928192,0.054738741368055344,-0.027762124314904213,0.08893515169620514,0.007457214407622814,0.06431149691343307,0.049563195556402206,0.007529433351010084,0.03819433972239494,0.023985793814063072,-0.056206513196229935,-0.018060585483908653,0.04078084975481033,0.0050132740288972855,-0.0038809520192444324,-0.10176677256822586,-0.052825991064310074,0.010446146130561829,-0.043089497834444046,-0.07275797426700592,-0.0209994837641716,0.09663888067007065,0.06745519489049911,-0.050808582454919815,0.04280887544155121,-0.05051787570118904,-0.007274507079273462,0.06381580233573914,-0.03838140517473221,-0.05399936065077782,0.027954362332820892,-0.045302651822566986,-0.067237488925457,-0.035786423832178116,-0.019179770722985268,0.03639598935842514,0.09233357012271881,-0.010921950452029705,0.036203738301992416,-0.002919032471254468,-0.07632040977478027,-0.024858715012669563,-0.011462702415883541,-0.008605844341218472,0.002691952046006918,-0.03165051341056824,-0.09472168236970901,0.021518239751458168,-0.004160251934081316,-0.020309332758188248,-0.08292645961046219,0.05198753997683525,-0.014872996136546135,0.01193681824952364,-0.02762938104569912,-0.021924760192632675,0.001801157370209694,0.037809256464242935,0.03698958829045296,0.0070810760371387005,0.04793660715222359,-0.0648544579744339,-0.042545489966869354,-0.05996137484908104,-0.06856321543455124,-0.069098562002182,-0.044812433421611786,-0.07532501965761185,0.027565252035856247,0.0007501024520024657,-0.051847197115421295,-0.0008940771804191172,-0.07592780888080597,0.05452284216880798,0.01048051007091999,0.025161657482385635,-0.022929519414901733,-0.11487528681755066,-0.007206473033875227,0.09668943285942078,0.032142095267772675,0.01644234172999859,0.01025998592376709,0.058423563838005066,0.06458019465208054,-0.029059061780571938,0.046823885291814804,-0.03355835750699043,0.001022924785502255,0.02767833322286606,0.04858792573213577,-0.0653308629989624,-0.0017295120051130652,-0.027366168797016144,0.1483786255121231,-0.005358067341148853,0.014564638026058674,-0.011949087493121624,-0.0915432721376419,0.01522537600249052,-0.021028054878115654,-0.03313373774290085,0.03674822673201561,0.0263836607336998,-0.04446760192513466,-0.010002697817981243,-0.05115774646401405,-0.08742474764585495,0.049721989780664444,-0.02983008697628975,0.010793687775731087,0.06132901832461357,-0.006294905208051205,-0.018617423251271248,0.024401018396019936,-0.053327467292547226,-0.022195570170879364,0.002177896210923791,-0.001265286118723452,-0.029471060261130333,6.040551670594141e-05,-0.06764429062604904,-0.05702769383788109,0.0009986584773287177,-0.0639648586511612,-0.0004032350261695683,-0.023925472050905228,0.009192273952066898,0.009131737984716892,-0.0010850006947293878,0.06531045585870743,0.015787027776241302,-0.07343149185180664,-0.007201255764812231,0.0071368287317454815,0.008605023846030235,0.08352138102054596,-0.022132299840450287,-0.002778916386887431,-0.02246810868382454,0.03977591171860695,-0.0850399062037468,-0.01115708239376545,-0.001377179054543376,0.013617289252579212,0.0011433365289121866,-0.09443558007478714,0.03035844676196575,0.030768737196922302,0.0830368772149086,0.09711278229951859,0.1023121178150177,-0.00919739343225956,-0.029900941997766495,0.036753520369529724,-0.05417889729142189,0.026020387187600136,0.006404506973922253,-0.031000513583421707,0.0639101043343544,-0.00643111439421773,0.01986907795071602,-0.03123764507472515,0.002810490084812045,0.05126982554793358,-0.018794765695929527,-0.01365832332521677,-0.034892383962869644,0.016669537872076035,0.0828218013048172,0.03135162591934204,0.005139660555869341,-0.00607833918184042,0.05115863308310509,0.03553038090467453,-0.008598986081779003,-0.08992552757263184,0.04676498472690582,-0.06462274491786957,-0.0361749529838562,-0.03153999149799347,-0.0088935736566782,-0.028873173519968987,-0.028234487399458885,0.08829433470964432,-0.021665437147021294,-0.015009132213890553,0.014522245153784752,0.06015872582793236,-0.04817427694797516,-0.05459560826420784,-0.06474464386701584,0.05243580415844917,-0.0770077034831047,-0.0662650540471077,-0.020090647041797638,-0.01778106391429901,0.01563791185617447,-0.03758233040571213,-0.035566821694374084,0.026654258370399475,-0.03213776648044586,0.008350497111678123,0.017250906676054,-0.015555591322481632,0.021355291828513145,0.030467383563518524,0.009702518582344055,-0.034439995884895325,0.041936587542295456,-0.0025102763902395964,0.04655984044075012,0.04499169811606407,0.044346973299980164,-0.05955071002244949,-0.020820362493395805,0.05955091118812561,-0.007471237797290087,-0.051578130573034286,-0.009915606118738651,0.048217497766017914,0.06914779543876648,-0.02141171135008335,-0.02499501034617424,0.07933004945516586,-0.05845099687576294,-0.04289644956588745,0.0367635115981102,-0.05994150787591934,0.02245650812983513,0.07317015528678894,0.04582391306757927,-0.03369520232081413,-0.0035961729008704424,-0.017218543216586113,-0.066109299659729,-0.08551173657178879,-0.05349523201584816,0.03879714384675026,-0.019644474610686302,0.06515783816576004,0.08403602987527847,0.014072474092245102,-0.03991693630814552,-0.033647358417510986,0.019767602905631065,0.07127300649881363,0.0812111347913742,-0.0013865596847608685,0.048967402428388596,0.010730612091720104,0.018462035804986954,0.013166180811822414,-0.026672624051570892,-0.00187146186362952,-0.026662733405828476,0.07347623258829117,0.04941454529762268,-0.03219915181398392,0.02519567869603634,-0.025839146226644516,0.0251246877014637,-0.0927252396941185,0.034838560968637466,0.04422064870595932,0.0400029718875885,0.04786483198404312,0.016809074208140373,-0.045716170221567154,-0.043227460235357285,-0.003210668917745352,0.04140651226043701,-0.005823013372719288,-0.024064088240265846,0.02239365130662918,-0.021168800070881844,-0.003913459368050098,0.03004520945250988,0.11461426317691803,-0.026543494313955307,0.05787985771894455,0.03397674113512039,-0.04913745075464249,0.006833906751126051,-0.028304388746619225,-0.01740274205803871,-0.009681056253612041,0.02063981257379055,0.039731718599796295,0.005159271880984306,0.093234121799469,-0.020583029836416245,-0.025605909526348114,0.015603319741785526,0.041445765644311905,-0.05380535125732422,-0.009407028555870056,-0.039348799735307693,0.008967744186520576,0.028135569766163826,-0.009682407602667809,-0.026784321293234825,-0.07874055206775665,0.04174690693616867,-0.017567917704582214,0.005207766313105822,0.06717877089977264,0.061992887407541275,0.05984313040971756,-0.053765300661325455,0.0356663353741169,0.0013418318703770638,-0.059789594262838364,-0.002298272680491209,0.04899179935455322,0.03548262268304825,0.00874693039804697,-0.011157647706568241,0.02902684174478054,0.03892618417739868,0.006007928866893053,0.01793755777180195,-0.028293170034885406,0.023654527962207794,-0.019763801246881485,0.060054611414670944,-0.025490472093224525,0.009710244834423065,0.05700664967298508,-0.004518838133662939
ID00009637202177434476278,0.0216175839304924,-0.021917494013905525,-0.04080061614513397,-0.05327142775058746,0.002780115231871605,-0.01043231226503849,0.03395196422934532,-0.049025971442461014,0.03796340897679329,-0.010284601710736752,0.017625682055950165,0.04396308586001396,-0.02230221778154373,0.08831395953893661,-0.05246293544769287,-0.006350815761834383,-0.036564674228429794,0.06315161287784576,-0.029616836458444595,-0.04256152734160423,0.03426656499505043,0.01473621092736721,-0.06454381346702576,-0.026607492938637733,-0.009456019848585129,0.098922498524189,0.0015607628738507628,-0.0007722909213043749,-0.014596435241401196,-0.026482630521059036,0.030956294387578964,-0.040122658014297485,-0.01532134972512722,-0.05442609637975693,0.0842578336596489,0.00592921394854784,0.024390270933508873,0.060560405254364014,-0.04270266741514206,0.07823285460472107,-0.026834707707166672,-0.06037009507417679,0.013019145466387272,-0.013484440743923187,0.007338461931794882,-0.07051015645265579,-0.011610330082476139,-0.0767887532711029,0.007453933358192444,0.0619354285299778,0.02551477774977684,0.0728626474738121,-0.0068618301302194595,-0.08908544480800629,0.04702906310558319,-0.03691963106393814,0.02814837545156479,0.02957579679787159,0.034183401614427567,0.041010111570358276,0.00957112479954958,0.01576058752834797,0.07710890471935272,0.004109933041036129,-0.051224857568740845,-0.041106145828962326,-0.04324231669306755,0.034925427287817,0.007238223683089018,-0.022914182394742966,0.08025793731212616,0.023184044286608696,-0.03118412010371685,-0.049766696989536285,-0.08808024972677231,-0.016417650505900383,0.024670911952853203,0.020299362018704414,0.030070990324020386,0.0512370765209198,-0.05775666981935501,-0.0251011922955513,-0.011149764992296696,0.003618287853896618,-0.02019696682691574,-0.036117713898420334,-0.06529293954372406,0.03073374554514885,-0.019890546798706055,-0.030066445469856262,0.03681480884552002,-0.014030542224645615,-0.1075420156121254,0.025770066305994987,0.004204863682389259,0.012240555137395859,-0.042769189924001694,0.045554161071777344,0.07566075772047043,-0.04197939112782478,0.022372694686055183,-0.06466907262802124,0.002660958329215646,-0.06755069643259048,0.046217404305934906,-0.010769122280180454,-0.07433043420314789,0.036194730550050735,-0.029583819210529327,0.013534466736018658,0.03447217494249344,0.011974570341408253,-0.0033323802053928375,0.06240546703338623,-0.0027072117663919926,-0.02670862525701523,0.04203706979751587,-0.014731879346072674,0.06089465692639351,-0.057718273252248764,-0.01737825945019722,0.10529318451881409,0.01406314130872488,-0.10397335141897202,0.013140102848410606,-0.03199409320950508,-0.141880601644516,-0.036320511251688004,0.028071045875549316,0.02433101460337639,0.10202819854021072,0.0016926942626014352,-0.061223823577165604,0.023107726126909256,0.0074876523576676846,-0.045778535306453705,0.015537929721176624,-0.07600966095924377,0.0027704143431037664,0.05802113190293312,0.017038676887750626,-0.043541617691516876,-0.045809000730514526,0.03153669461607933,0.028344545513391495,-0.016918843612074852,0.009235512465238571,0.06355208158493042,-0.0733046680688858,0.033924650400877,-0.020607594400644302,-0.02245708927512169,0.042407650500535965,-0.09597861021757126,-0.021783117204904556,-0.021120527759194374,0.03056032769382,-0.02702646702528,0.03778291866183281,0.02758302353322506,0.004722485784441233,0.0569588877260685,-0.056808993220329285,0.07140998542308807,0.008970615454018116,0.08317293971776962,0.04338188096880913,-0.028993474319577217,0.03953806683421135,-0.020146794617176056,-0.04936129227280617,0.04422802850604057,-0.005557061173021793,0.020142430439591408,0.01798853650689125,0.002610411262139678,0.02847304381430149,-0.027992673218250275,-0.03312476724386215,-0.0009522630134597421,-0.004045081790536642,0.03147444128990173,-0.08311396837234497,0.023786600679159164,-0.017211265861988068,0.1254294067621231,-0.003502767300233245,0.0005758238839916885,0.053090136498212814,0.008180507458746433,0.002493230625987053,0.025994133204221725,-0.0656205490231514,-0.006604306865483522,-0.007881184108555317,0.05042137950658798,0.003402035217732191,-0.059193678200244904,-0.03727061673998833,-0.0519820936024189,-0.0629509761929512,-0.06295584887266159,0.011186208575963974,0.11433184891939163,0.046728599816560745,-0.021731790155172348,0.006421434227377176,-0.01028013601899147,0.0015176000306382775,0.017866235226392746,-0.06000131368637085,-0.04203277453780174,0.03323402628302574,0.029817942529916763,0.00034687251900322735,0.009124615229666233,0.009381559677422047,0.0045646196231245995,0.08597137033939362,-0.0008117099641822278,0.039429981261491776,0.023470159620046616,-0.053343337029218674,-0.020472493022680283,0.027167370542883873,-0.003915161360055208,-0.00936640053987503,-0.08743961900472641,-0.11259126663208008,-0.014193709008395672,-0.017399128526449203,-0.004659690894186497,-0.1059461385011673,0.059511199593544006,0.012191281653940678,0.03474096581339836,-0.01349550485610962,-0.0595560222864151,-0.028322799131274223,0.025967098772525787,0.03269224986433983,-0.014825128018856049,0.095181405544281,0.010519140399992466,-0.005746024660766125,-0.06599631905555725,-0.05007379129528999,-0.07317327708005905,-0.06481712311506271,-0.041349947452545166,0.05796458199620247,-0.00567410234361887,-0.03832090273499489,0.028803391382098198,-0.07828531414270401,0.07900426536798477,0.003210271941497922,-0.005318597424775362,0.0012599419569596648,-0.05608341842889786,0.01517234742641449,0.05005667731165886,0.0421266071498394,0.03813480585813522,-0.04745140299201012,0.019668539986014366,0.007520559709519148,-0.0039464388974010944,0.04629475623369217,0.0017533744685351849,0.00143413245677948,0.06130005791783333,0.03975268453359604,-0.0688822790980339,-6.854320963611826e-05,-0.03203079104423523,0.11192943155765533,0.012793158181011677,-0.008344998583197594,-0.023062318563461304,-0.024481944739818573,-0.021640798076987267,0.027839502319693565,-0.0749167650938034,-0.003138692816719413,-0.0007787586655467749,-0.042319055646657944,0.017227157950401306,-0.07021886110305786,-0.12333222478628159,0.09613483399152756,0.022791633382439613,-0.006270840298384428,0.04505850747227669,-0.007108122110366821,-0.016059543937444687,-0.013513632118701935,-0.07872455567121506,-0.024024002254009247,-0.010736329481005669,0.033797964453697205,-0.023877691477537155,-0.0019872328266501427,-0.08657285571098328,-0.08340778946876526,0.049805957823991776,-0.0568557046353817,-0.003975293133407831,-0.019569598138332367,-0.04968925938010216,-0.008845370262861252,-0.009356171824038029,-0.015057100914418697,0.0007080796058289707,-0.005741724744439125,-0.04543108120560646,0.04010525718331337,0.08166666328907013,0.07120322436094284,-0.061810195446014404,0.03743536397814751,0.02951095625758171,-0.0008979865815490484,-0.08123794943094254,-0.048028022050857544,-0.05355004966259003,0.0697823092341423,-0.032289113849401474,-0.0034470907412469387,0.04274432733654976,0.008632495999336243,0.05528993532061577,0.06645536422729492,0.09145757555961609,-0.01235983707010746,-0.029903901740908623,0.06501545011997223,-0.0724320262670517,0.044183582067489624,0.014428988099098206,-0.028221668675541878,0.049434371292591095,-0.014318987727165222,-0.023543698713183403,-0.027144739404320717,-0.008337119594216347,0.07231708616018295,-0.037494026124477386,0.011325144208967686,-0.03125171735882759,0.06903969496488571,0.058065224438905716,0.006413276772946119,0.007563797291368246,-0.017591681331396103,0.02384304068982601,0.039376989006996155,0.08035866171121597,-0.06498891115188599,0.040740255266427994,-0.01541522890329361,-0.07051122188568115,-0.0017924621934071183,-0.05774519219994545,-0.06623300164937973,-0.0002901313127949834,0.03248969838023186,0.0291711688041687,-0.04823778197169304,0.0013629903551191092,0.04607820883393288,-0.023231426253914833,-0.034462206065654755,-0.05101810023188591,0.029972096905112267,-0.05530022084712982,-0.030621400102972984,-0.08048294484615326,-0.0010528272250667214,0.0039800615049898624,-0.029987670481204987,-0.017937548458576202,-0.013730417937040329,0.000522784364875406,0.005909808911383152,-0.021101951599121094,0.006247241981327534,0.038517069071531296,-0.008401213213801384,-0.017288191244006157,0.01095468271523714,-0.030087532475590706,0.0008069523028098047,0.050117067992687225,0.014349880628287792,0.011563350446522236,-0.10683651268482208,-0.025332367047667503,0.08641067892313004,-0.04755831137299538,-0.013467404060065746,-0.00723536591976881,0.04334086924791336,0.065006323158741,-0.0428973063826561,0.02033081091940403,0.06773129105567932,-0.07326692342758179,-0.05483382195234299,0.01227281242609024,-0.051865145564079285,0.01325371116399765,0.057370711117982864,0.0333956703543663,-0.013010078109800816,0.0005803437670692801,-0.024811187759041786,-0.038312677294015884,-0.08690091967582703,-0.019189855083823204,0.04663534834980965,-0.013387042097747326,0.0929868295788765,0.053810715675354004,0.045557282865047455,-0.03418354317545891,-0.019005943089723587,0.006664518732577562,0.004929520655423403,0.05569541081786156,-0.05446847155690193,0.030628615990281105,0.02748989872634411,0.0012784971622750163,0.0158888828009367,0.015003037638962269,0.014858556911349297,-0.018315134570002556,0.07897918671369553,0.028937626630067825,0.0012879478745162487,0.026456793770194054,-0.04013410955667496,0.005272840149700642,-0.09126374870538712,0.07037113606929779,0.07080615311861038,0.00037479549064300954,0.027777008712291718,0.033096108585596085,-0.024786364287137985,-0.01283566839993,0.008628982119262218,0.036407336592674255,0.021560801193118095,-0.05237089842557907,0.03752598538994789,-0.02646399475634098,0.03347261995077133,-0.010104694403707981,0.07777521014213562,0.00385857280343771,0.043336525559425354,-4.7664459998486564e-05,-0.09977714717388153,0.012339887209236622,0.002937927143648267,-0.061702828854322433,-0.02011498622596264,-0.008012572303414345,0.013484974391758442,-0.013386980630457401,0.07817688584327698,-0.01039567869156599,-0.012241873890161514,0.001268652267754078,0.08121975511312485,-0.004171231761574745,0.03744823858141899,-0.013972156681120396,0.014468977227807045,-0.024596212431788445,0.013894627802073956,-0.015884624794125557,-0.0030688804108649492,0.07946950942277908,0.008669168688356876,0.021277789026498795,0.05598600208759308,0.03922514244914055,0.02524973452091217,-0.06038933992385864,0.006112806499004364,0.03375321254134178,-0.008649015799164772,-0.05836933106184006,-0.002524038776755333,0.005101982969790697,-0.0009359583491459489,-0.025494568049907684,0.04293061047792435,0.02360094152390957,-0.011121750809252262,-0.06127825751900673,-0.05058691278100014,-0.007634218782186508,-0.04734369367361069,0.02520192414522171,-0.009224445559084415,0.03277561068534851,0.022704826667904854,-0.03571924939751625
ID00010637202177584971671,0.006880388595163822,-0.05535035952925682,0.0034892833791673183,-0.01607857085764408,0.021397629752755165,-0.06634946167469025,-0.06076017767190933,-0.025089841336011887,-0.10081753879785538,0.030674654990434647,-0.022917402908205986,-0.013871952891349792,0.019671272486448288,0.014492366462945938,0.016499174758791924,-0.0010256863897666335,-0.03183480724692345,-0.005572314374148846,0.004299997817724943,0.010818492621183395,-0.04585238918662071,-0.03850925341248512,-0.006425964646041393,-0.084262415766716,0.027263019233942032,0.07891777157783508,0.01785375364124775,-0.01612609438598156,0.04796185344457626,0.06495504081249237,-0.0759844183921814,-0.009084942750632763,-0.010911044664680958,-0.005608163308352232,0.06709801405668259,-0.07216944545507431,-0.009778224863111973,0.005927266087383032,-0.06631172448396683,0.022215446457266808,-0.0881681740283966,-0.08486489206552505,0.0003605110396165401,-0.013070296496152878,0.039355628192424774,-0.02243945747613907,-0.001653891522437334,-0.07339394092559814,0.059384893625974655,0.004563379101455212,-0.019770514219999313,0.01096814963966608,-0.09448637813329697,-0.03946477547287941,0.09848926216363907,0.01818845234811306,-0.010666732676327229,0.08249809592962265,0.024873392656445503,-0.06252854317426682,-0.0005246949731372297,-0.01739732176065445,-0.022679772228002548,0.06458677351474762,-0.09669656306505203,0.010908671654760838,-0.07627088576555252,0.02178841456770897,0.03476961702108383,-0.0513722188770771,0.04053914546966553,-0.018418101593852043,-0.05497932434082031,-0.04153476655483246,0.02638935297727585,-0.018915895372629166,0.05048597604036331,0.06600157916545868,0.034581445157527924,-0.014621127396821976,0.023151790723204613,-0.04727631062269211,0.024261606857180595,0.011109850369393826,0.07164518535137177,-0.024555176496505737,-0.037446729838848114,0.0257321298122406,0.007956418208777905,-0.03205109387636185,-0.027734190225601196,-0.011088870465755463,-0.032582011073827744,0.003297528252005577,0.016279950737953186,0.018688300624489784,0.04838302731513977,0.08494594693183899,-0.03152613714337349,-0.06576063483953476,0.04219270870089531,-0.018795907497406006,-0.02409539930522442,0.023986803367733955,0.06717050075531006,-0.0015087764477357268,-0.007629604544490576,-0.06004001945257187,0.05924377217888832,0.0134486248716712,-0.024759206920862198,0.05175170674920082,0.04866660013794899,-0.05273209884762764,0.06873942166566849,0.08111865073442459,0.0472426563501358,0.015463407151401043,0.04368589073419571,-0.08110683411359787,-0.04073439538478851,0.011578554287552834,0.035051584243774414,-0.0546184666454792,0.02650752104818821,-0.017781715840101242,0.030403291806578636,-0.043396927416324615,0.07658986002206802,0.006901404354721308,0.0176768247038126,0.03752511367201805,0.047887444496154785,0.09071079641580582,0.016897911205887794,-0.012060836888849735,-0.026197096332907677,-0.0351252481341362,-0.024139564484357834,0.06114722415804863,0.008152025751769543,-0.0026859180070459843,-0.014000368304550648,-0.02133343555033207,0.0633915588259697,0.07676947861909866,0.038238443434238434,-0.055116452276706696,0.034914612770080566,-0.02296716347336769,0.008825835771858692,-0.05422913655638695,0.0852486714720726,0.007314329966902733,0.05538879707455635,-0.025953054428100586,-0.053619369864463806,0.016104508191347122,0.011176186613738537,-0.015263237059116364,0.05969192832708359,0.059025801718235016,0.01092730462551117,0.0040905773639678955,-0.04373908415436745,0.07463495433330536,0.046436749398708344,-0.0037949138786643744,-0.06815604120492935,0.02419612929224968,-0.0336201936006546,-0.022039514034986496,0.0184114221483469,-0.0023915469646453857,-0.031173083931207657,0.020931631326675415,-0.028430651873350143,0.040453776717185974,0.04626241326332092,-0.017360402271151543,-0.003007133724167943,0.014769822359085083,-0.09516303241252899,0.09280100464820862,-0.09241005778312683,0.025594251230359077,-0.007581558544188738,0.01485505048185587,-0.00751496059820056,0.0009795358637347817,0.05757160112261772,-0.008411462418735027,-0.07079454511404037,0.0009824184235185385,0.05390701815485954,-0.012099642306566238,0.04632675275206566,-0.059385400265455246,-0.06271768361330032,0.03736994042992592,0.028421785682439804,-0.07214827835559845,-0.006038832012563944,0.01860484667122364,0.07426828145980835,-0.01986984722316265,0.03026779182255268,-0.0642457976937294,-0.03312234953045845,0.08809361606836319,-0.016383524984121323,-0.023352812975645065,0.06078707054257393,-0.0450456403195858,-0.07685884833335876,-0.009476860985159874,0.0034859657753258944,0.04305269941687584,0.057867228984832764,0.04958758130669594,0.05437026545405388,-0.00782847311347723,-0.05963718891143799,0.04274177923798561,-0.00201914319768548,-0.008485503494739532,0.031042052432894707,-0.0043029217049479485,-0.08950748294591904,0.07117120176553726,-0.05152012035250664,-0.07811429351568222,-0.07212305814027786,0.07765985280275345,-0.010368162766098976,0.056781936436891556,-0.0428658090531826,0.012147371657192707,-0.012730843387544155,0.0313103049993515,0.01304788701236248,0.0022356919944286346,-0.010135517455637455,-0.0736839696764946,-0.0719168558716774,0.009913381189107895,-0.035440634936094284,-0.08752427995204926,-0.0003461900632828474,-0.00024207323440350592,0.020064812153577805,-0.0009388873586431146,0.028615767136216164,-0.020174147561192513,-0.08532939106225967,-0.034816280007362366,0.0027904862072318792,0.026316629722714424,-0.01781443879008293,-0.05681251361966133,-0.0005310106207616627,0.0816551074385643,-0.04264167696237564,0.038337115198373795,0.04246429353952408,0.04819310083985329,0.02498241327702999,0.012512151151895523,0.052260927855968475,-0.07613509148359299,0.07029662281274796,0.03899495676159859,-0.010819138959050179,0.0031912517733871937,-0.02069759927690029,-0.032043617218732834,0.07960104942321777,0.00524771586060524,0.04094362258911133,-0.04896634817123413,-0.029311401769518852,0.09489428251981735,0.03157041221857071,-0.047026120126247406,0.023834332823753357,0.007734163664281368,-0.027393214404582977,-0.007988500408828259,-0.05215620622038841,-0.010067220777273178,0.01683834195137024,0.012784953229129314,0.01777302846312523,0.06050402671098709,0.025337282568216324,0.011445190757513046,-0.0330028235912323,-0.062091488391160965,-0.048709936439991,0.022813905030488968,-0.003287641331553459,-0.027942150831222534,-0.03435773029923439,-0.03708667308092117,-0.037614498287439346,-0.04087669774889946,-0.09238087385892868,0.050607625395059586,-0.027964459732174873,0.0030597590375691652,0.007514003664255142,-0.007875239476561546,0.08043309301137924,-0.01505658496171236,-0.07386542856693268,0.02902943827211857,-0.0603175088763237,-0.03311760723590851,0.09797029197216034,0.034393057227134705,0.013189359568059444,-0.03057253360748291,0.026146098971366882,-0.006109238602221012,-0.06493356078863144,0.021652543917298317,0.007874108850955963,0.007260963320732117,-0.028072834014892578,0.017456019297242165,0.035117316991090775,0.07513567805290222,0.07574328780174255,0.06489408016204834,-0.008625485002994537,0.022945428267121315,0.039857178926467896,-0.042685944586992264,-0.01592135988175869,0.026019148528575897,-0.016423294320702553,0.07689398527145386,0.024603066965937614,0.04874633997678757,-0.07810106128454208,0.0059555149637162685,0.023496482521295547,-0.022113842889666557,-0.0710427463054657,-0.04273933544754982,0.0006579236942343414,0.08229601383209229,0.053119540214538574,-0.03758065029978752,0.03430439904332161,0.05516742169857025,-0.02054833620786667,-0.005604499951004982,-0.06406380236148834,0.0786452367901802,-0.037851426750421524,-0.029374511912465096,-0.08454038947820663,0.07026047259569168,0.03764669969677925,-0.03140413016080856,-0.004190510138869286,0.030110051855444908,-0.04246388003230095,0.027794143185019493,-0.0023681623861193657,0.0005861704703420401,-0.08797264099121094,-0.005455776117742062,0.012427808716893196,-0.04807805269956589,-0.013304691761732101,0.07417304068803787,-0.030935630202293396,0.0088884886354208,-0.04602006822824478,0.044846124947071075,-0.04431435093283653,0.02893112227320671,0.011716003529727459,0.033094000071287155,-0.03780489042401314,-0.020136719569563866,0.03294624760746956,0.022542685270309448,-0.03590602055191994,0.08515938371419907,-0.001427522161975503,-0.02165052853524685,0.01954549364745617,0.06266343593597412,-0.03275841474533081,0.03791164979338646,0.05224928259849548,0.024803949519991875,0.0021951410453766584,-0.021190641447901726,0.043385155498981476,-0.009182947687804699,-0.021554892882704735,-0.07216943055391312,0.013502183370292187,-0.03554357588291168,-0.026370959356427193,0.06840739399194717,-0.03141083940863609,-0.008189108222723007,0.058976877480745316,0.09620627015829086,-0.08511480689048767,-0.03920754790306091,-0.03631873056292534,-0.00822706613689661,-0.0224863700568676,-0.046441856771707535,0.009160429239273071,-0.014496879652142525,0.04982469975948334,0.0746157169342041,-0.0027151359245181084,-0.0014070303877815604,-0.04928212985396385,0.08696392923593521,0.05020894110202789,0.06674150377511978,0.04151727631688118,0.08688341081142426,0.02019529975950718,0.06028172746300697,-0.04557301476597786,0.03154674917459488,-0.07944116741418839,-0.07326893508434296,0.005114200059324503,-0.015385058708488941,0.04194214940071106,0.013139570131897926,-0.03095068223774433,0.027318168431520462,-0.03401055559515953,0.03595907986164093,-0.002432621316984296,0.055523715913295746,0.06391461193561554,0.023455457761883736,-0.0697818174958229,0.0016006168443709612,-0.014608425088226795,-0.006327195093035698,0.0169364083558321,-0.05276118218898773,0.028068426996469498,0.04499140381813049,-0.0395904965698719,0.050852950662374496,0.08334997296333313,-0.026456022635102272,0.012810689397156239,0.03317241743206978,0.006866236217319965,0.019705280661582947,0.005092918407171965,-0.003262781770899892,-0.03976236283779144,-0.015328661538660526,0.025829508900642395,0.024870680645108223,0.0207892507314682,-0.019501984119415283,0.0026824609376490116,0.009956823661923409,0.0624137744307518,-0.05947405844926834,-0.0007839665049687028,-0.08067824691534042,-0.01974429376423359,0.03740276023745537,0.0898643285036087,0.01209066528826952,-0.09364314377307892,0.025384465232491493,0.001715777674689889,-0.012570439837872982,0.05677943676710129,0.027407268062233925,0.03989240154623985,-0.021767187863588333,-0.02179698273539543,0.049154847860336304,0.017915287986397743,0.028225501999258995,-0.009676155634224415,0.10348799079656601,0.059337615966796875,0.009215392172336578,-0.030390892177820206,0.054774217307567596,0.0510290265083313,-0.023815615102648735,-0.0018812805647030473,0.0025607494171708822,-0.05015679821372032,-0.003032136708498001,0.023554975166916847,-0.013733218424022198,-0.004133111797273159,0.04734485223889351
ID00011637202177653955184,0.038690295070409775,-0.05285348743200302,0.006850274279713631,0.006711259949952364,0.0030122767202556133,-0.07292481511831284,-0.05593128129839897,-0.036694563925266266,-0.0809093788266182,0.04467115178704262,-0.026910876855254173,-0.029861731454730034,0.019135694950819016,0.008700179867446423,0.01166624017059803,0.004737119656056166,-0.004235895350575447,0.010565703734755516,0.03339363634586334,-0.010834564454853535,-0.04872044548392296,-0.03818656504154205,0.009654604829847813,-0.11219018697738647,0.03749711066484451,0.06424693018198013,0.007545885164290667,-0.009569518268108368,0.026624618098139763,0.0474572628736496,-0.05132139474153519,-0.012759163044393063,-0.0016297397669404745,-0.009699787013232708,0.07191269099712372,-0.07242673635482788,-0.01598011888563633,0.017977550625801086,-0.04710513725876808,0.04176415503025055,-0.0807158350944519,-0.08663889765739441,0.0011155926622450352,-0.011177737265825272,0.02482760138809681,-0.029608258977532387,-0.006139455363154411,-0.07620538026094437,0.05873710289597511,0.02345404587686062,-0.0043417662382125854,-0.008126085624098778,-0.0803200751543045,-0.023578237742185593,0.08227910101413727,0.015320250764489174,0.001335565117187798,0.09718362241983414,0.020419299602508545,-0.04898889735341072,0.028208935633301735,-0.009732704609632492,-0.030247746035456657,0.04338831827044487,-0.07263503968715668,-0.013037719763815403,-0.08219745010137558,0.02717425860464573,0.01609593629837036,-0.04400944709777832,0.039885200560092926,0.0252348855137825,-0.022336764261126518,-0.06703367829322815,0.0007086859550327063,-0.003663501003757119,0.03711233660578728,0.07882107049226761,0.016007082536816597,0.006475107278674841,0.022234611213207245,-0.04009973257780075,0.034082334488630295,-0.005766222719103098,0.08532813936471939,-0.030828578397631645,-0.06505903601646423,0.018175039440393448,0.0013821626780554652,-0.024648206308484077,-0.009859973564743996,-0.007412373088300228,-0.04300502687692642,0.031112119555473328,0.03916415199637413,0.07214392721652985,0.019288551062345505,0.08542461693286896,-0.01397748477756977,-0.08782695978879929,0.045269157737493515,-0.02565588988363743,-0.05769488215446472,-0.004991532769054174,0.070031076669693,0.004571688827127218,-0.012593498453497887,-0.06329461187124252,0.033250875771045685,-0.008341245353221893,-0.002610208932310343,0.041432756930589676,0.048574548214673996,-0.04043455049395561,0.06559567898511887,0.08503010869026184,0.0201172586530447,0.0019258939428254962,0.04688242822885513,-0.10825308412313461,-0.06344442069530487,0.019581373780965805,0.032483864575624466,-0.04327094554901123,0.01802021637558937,-0.008352656848728657,-0.00045321136713027954,-0.04051744565367699,0.08551095426082611,0.01524877268821001,0.03521373122930527,0.02071453258395195,0.03290044516324997,0.10214614123106003,0.00166433269623667,-0.031366512179374695,-0.006672805640846491,-0.049293287098407745,0.0014578282134607434,0.029915912076830864,0.0059324451722204685,-0.005440155975520611,0.0009976824512705207,-0.010890474542975426,0.08298774808645248,0.052883975207805634,0.015311550348997116,-0.07076544314622879,0.0393272265791893,-0.010520162992179394,0.02032562531530857,-0.06852303445339203,0.09171038120985031,-0.001465465989895165,0.04505845531821251,-0.0189715214073658,-0.05414413660764694,0.0012600106419995427,0.012614311650395393,0.006470486521720886,0.08003981411457062,0.07300066202878952,-0.004799264948815107,-0.0001409229589626193,-0.06426195055246353,0.07118318974971771,0.03887830302119255,0.02688157744705677,-0.04751378297805786,0.0022747362963855267,-0.06129005178809166,-0.010303103365004063,-0.016398480162024498,-0.0022216516081243753,-0.015941504389047623,0.032997723668813705,-0.013396115973591805,0.0495932400226593,0.04196065664291382,-0.02801516279578209,-0.0033130377996712923,-0.009024395607411861,-0.10248865932226181,0.09010424464941025,-0.06999848037958145,0.04203946515917778,-0.03031049482524395,0.002555373590439558,-0.00937148928642273,-0.006193214096128941,0.07184624671936035,-0.013536416925489902,-0.057146310806274414,0.0007538258796557784,0.04091041535139084,0.01659974455833435,0.058712586760520935,-0.07321779429912567,-0.0616377517580986,0.03646296262741089,0.046119652688503265,-0.07420939207077026,-0.02819756604731083,0.009372031316161156,0.07436563819646835,-0.023726491257548332,0.03391840681433678,-0.05865837261080742,-0.05470355972647667,0.07579624652862549,-0.0176815427839756,-0.027341417968273163,0.028814809396862984,-0.046893421560525894,-0.08459047228097916,-0.010943233035504818,0.019042951986193657,0.01841888576745987,0.07210692018270493,0.049334123730659485,0.05429668724536896,-0.01660137251019478,-0.04694357514381409,0.013345194049179554,-0.002719646552577615,-0.000902362575288862,0.03756459429860115,-0.01964471861720085,-0.09523385018110275,0.07178328931331635,-0.02251354232430458,-0.07419533282518387,-0.07133585214614868,0.053959354758262634,-0.01709544099867344,0.05030845105648041,-0.054229456931352615,0.010579167865216732,-0.015304693020880222,0.01996750198304653,0.011088808067142963,-0.0009208995033986866,-0.022632990032434464,-0.08188897371292114,-0.05074097588658333,0.026894178241491318,-0.020252138376235962,-0.09016075730323792,0.002940457547083497,0.022395089268684387,0.0032707771752029657,-0.0354691743850708,0.011633451096713543,-0.021329795941710472,-0.08356878161430359,-0.015164830721914768,0.012334655970335007,0.03201759234070778,0.021146098151803017,-0.04271292686462402,0.01747514121234417,0.07355844974517822,-0.03764661028981209,0.01624704897403717,0.023811539635062218,0.03234264999628067,0.008838855661451817,-0.00016414507990702987,0.017354696989059448,-0.06595201790332794,0.08069933205842972,0.049899160861968994,-0.026443438604474068,0.007099190726876259,-0.0029237389098852873,-0.0414249449968338,0.06797736138105392,0.0014929425669834018,0.05853090435266495,-0.05917087197303772,-0.014042459428310394,0.08078744262456894,0.03801117464900017,-0.05774731934070587,0.014243075624108315,-0.0006316477083601058,-0.030377505347132683,0.0084151616320014,-0.06455469876527786,0.0017734455177560449,0.01549085695296526,0.031041646376252174,0.0441066175699234,0.06831355392932892,0.051023297011852264,0.004191192798316479,-0.027771444991230965,-0.07052654772996902,-0.05613477900624275,0.04257494583725929,0.023530296981334686,-0.007520751561969519,-0.03170299902558327,-0.04867498576641083,-0.027925480157136917,-0.04946715757250786,-0.10298860818147659,0.0749155804514885,-0.02557118609547615,-0.005621197167783976,-0.03885098546743393,-0.036879267543554306,0.07648494094610214,-0.00797042902559042,-0.058598410338163376,0.025803208351135254,-0.04623770713806152,-0.036842137575149536,0.0794857069849968,-0.006847382057458162,-0.010524316690862179,-0.033277980983257294,0.003385863732546568,-0.014381689950823784,-0.06756705045700073,-0.016888616606593132,0.03291531652212143,-0.0007117005879990757,-0.008250347338616848,0.05407117307186127,0.03686128184199333,0.07257886230945587,0.10462141782045364,0.059527818113565445,-0.03753867372870445,-0.0236302949488163,0.029482528567314148,-0.0441192090511322,-0.012989929877221584,0.026099279522895813,-0.006458495743572712,0.08405476063489914,0.013035876676440239,0.06349395960569382,-0.0767517015337944,-0.016678323969244957,-0.008771694265305996,-0.026449840515851974,-0.05662774294614792,-0.04667073115706444,-0.0019894514698535204,0.06561355292797089,0.05842401832342148,-0.04168901965022087,0.039271607995033264,0.0431445837020874,-0.054604705423116684,0.03034588135778904,-0.044677626341581345,0.053099147975444794,-0.02829197607934475,-0.024748388677835464,-0.0639052763581276,0.04098441079258919,0.014730098657310009,-0.026309283450245857,0.022868061438202858,0.042215414345264435,-0.0627579391002655,0.05222544074058533,-0.00165256904438138,0.02001604437828064,-0.07250305265188217,0.017339026555418968,0.0005461931577883661,-0.06868796795606613,-0.0029637226834893227,0.05298246815800667,-0.0186699777841568,0.01663922518491745,-0.03672461584210396,0.059740789234638214,-0.06746787577867508,0.03871600329875946,0.006862304639071226,0.02608686126768589,-0.024991938844323158,-0.04550633579492569,0.022803397849202156,0.025677690282464027,-0.016956964507699013,0.04800361394882202,0.008931692689657211,-0.016701195389032364,-0.0012742740800604224,0.08620090037584305,-0.04051589220762253,0.056152526289224625,0.05162214860320091,0.028100961819291115,0.037449389696121216,-0.015569358132779598,0.03907495364546776,-0.010401440784335136,-0.010781009681522846,-0.04245684668421745,0.018776364624500275,-0.03857721388339996,-0.00658179959282279,0.0629706159234047,-0.026891376823186874,0.01842254027724266,0.0701221153140068,0.08900599181652069,-0.09531605988740921,-0.02181171625852585,-0.03244392201304436,0.03270355612039566,-0.003917375113815069,-0.04676695540547371,-0.017618242651224136,-0.018664715811610222,0.03962690755724907,0.07700000703334808,-0.019505415111780167,-0.0027659593615680933,-0.061330292373895645,0.08133025467395782,0.0365421287715435,0.05711503326892853,0.03693380206823349,0.09232509881258011,0.02118551731109619,0.043377794325351715,-0.047425806522369385,0.07328346371650696,-0.01554224081337452,-0.04405781254172325,-0.007918612100183964,-0.03456438332796097,0.03102644346654415,0.018464429304003716,-0.0003320146061014384,0.0018036934779956937,-0.03607125207781792,0.023338764905929565,-0.00978381372988224,0.047326359897851944,0.06405613571405411,0.059664346277713776,-0.09058289974927902,0.001223127357661724,0.006620957050472498,-0.008970016613602638,0.024344999343156815,-0.049717977643013,0.05820965766906738,0.05963888391852379,-0.014771150425076485,0.04547949880361557,0.08308321982622147,-0.013442564755678177,0.012795663438737392,0.0164254792034626,-0.012219532392919064,0.023187018930912018,-0.01263501588255167,-0.007853512652218342,-0.03726651147007942,-0.024701567366719246,0.0389208160340786,0.022117046639323235,0.03983865678310394,0.0012034738902002573,-0.025694984942674637,0.00165473110973835,0.07165256887674332,-0.025854729115962982,0.032715946435928345,-0.10156871378421783,0.018901541829109192,0.02771601639688015,0.09226486831903458,0.013647031970322132,-0.07308309525251389,0.05777852609753609,0.028839271515607834,-0.007580126635730267,0.0514998584985733,0.030870018526911736,0.04941282048821449,-0.022821959108114243,-0.018999336287379265,0.06873849779367447,-0.0007093548774719238,0.027760790660977364,-0.029251091182231903,0.07869873195886612,0.047572504729032516,0.003025045618414879,-0.04433991387486458,0.056009624153375626,0.04813230410218239,-0.011071756482124329,0.016690535470843315,0.007753072306513786,-0.06721054762601852,0.009841189719736576,0.01814471185207367,-0.018536541610956192,-0.010912107303738594,0.024902120232582092
ID00012637202177665765362,0.045207660645246506,-0.055418711155653,-0.030435429885983467,0.003883932949975133,0.024668432772159576,-0.02180740423500538,-0.022482097148895264,-0.02514718845486641,-0.03438233211636543,0.00475066713988781,0.027469761669635773,-0.006008075084537268,0.015286180190742016,-0.028827747330069542,0.017651543021202087,-0.024646930396556854,-0.027378669008612633,0.04430575668811798,0.0377800315618515,0.007897866889834404,-0.0695061981678009,-0.030857067555189133,-9.262833191314712e-05,-0.07647981494665146,0.015281093306839466,0.1008988469839096,0.01856984943151474,0.0049911788664758205,0.042327724397182465,0.028460508212447166,-0.02003123052418232,-0.0124284066259861,0.02024734392762184,-0.02620759606361389,0.07437100261449814,-0.04251494258642197,0.005782637279480696,0.0634746178984642,0.001876168418675661,0.03386618569493294,-0.014386255294084549,0.009417055174708366,-0.03137742355465889,-0.03215371072292328,-0.01908878982067108,-0.01766197197139263,0.07452890276908875,-0.040621403604745865,0.04259105026721954,-0.0008788752602413297,0.002011550823226571,0.004902702756226063,-0.08150716871023178,-0.04283677041530609,0.053179703652858734,0.0009682234958745539,-0.016477931290864944,0.06740795820951462,-0.025125646963715553,0.0032223016023635864,0.10482574999332428,-0.014096515253186226,-0.01872020959854126,0.04724367335438728,-0.03294115513563156,-0.031764667481184006,-0.09426046907901764,0.03181750327348709,-0.002511698054149747,-0.03665773198008537,0.08231938630342484,0.04715107008814812,-0.012355293147265911,-0.09494469314813614,-0.011486965231597424,0.007341538090258837,0.010421670973300934,0.04932897910475731,-0.007812729105353355,-0.007734647020697594,-0.02736344188451767,-0.046564389020204544,0.00824360828846693,-0.036880671977996826,0.08987856656312943,0.017448220402002335,-0.015010745264589787,0.010621719062328339,-0.07788664847612381,-0.046987488865852356,-0.0056258742697536945,0.008363192901015282,-0.005233656149357557,0.03271055221557617,0.0007669736514799297,0.08357466012239456,0.0028389431536197662,0.022199194878339767,0.012836381793022156,-0.07430484145879745,0.093656025826931,-0.03968571498990059,-0.05794858559966087,-0.009184500202536583,0.07939114421606064,0.0015702714445069432,0.019741931930184364,-0.06868329644203186,0.01485374104231596,-0.010720237158238888,-0.034134846180677414,0.03765913471579552,-0.007618524134159088,-0.05520932376384735,0.06076065078377724,0.07587704807519913,-0.002252752659842372,0.020730776712298393,0.08188126981258392,-0.11271201819181442,-0.08265378326177597,0.08573944866657257,0.03674431890249252,-0.10722498595714569,0.022658023983240128,-0.052548833191394806,-0.013193021528422832,-0.03691431134939194,0.06034019961953163,-0.03694269433617592,0.08956007659435272,0.007951837033033371,-0.0005249720998108387,0.07193339616060257,0.018359508365392685,-0.07560139149427414,-0.011811669915914536,-0.04419780522584915,0.029663532972335815,0.06839160621166229,0.05487634241580963,-0.03317565843462944,-0.05793115496635437,-0.025390369817614555,0.07554556429386139,0.009778370149433613,0.001421203138306737,-0.010561402887105942,0.0023806924000382423,0.02127428725361824,-0.015207500196993351,-0.04945458844304085,0.10147169977426529,-0.006626201327890158,0.025176607072353363,-0.005602818448096514,-0.045587990432977676,-0.04587647691369057,0.04168643429875374,-0.03485647216439247,0.0572282038629055,0.05856480821967125,-0.056282155215740204,-0.036705370992422104,-0.056209154427051544,0.08236656337976456,-0.0038521350361406803,0.017076747491955757,-0.01597871631383896,-0.027455270290374756,-0.036551132798194885,0.007452152203768492,-0.015480839647352695,0.018928321078419685,-0.01986868306994438,0.013553519733250141,0.00012499999138526618,0.011931500397622585,-0.00591020192950964,-0.029617970809340477,-0.0026475172489881516,-0.007430352736264467,-0.07858332246541977,0.08363936096429825,-0.01868177391588688,0.09208523482084274,-0.0009860547725111246,0.028512440621852875,-0.04345995560288429,-0.009452448226511478,0.041835397481918335,0.00767606170848012,-0.015893951058387756,-0.0164492130279541,0.044112429022789,0.05228680372238159,0.0018183107022196054,-0.08119091391563416,-0.07968922704458237,0.04822360351681709,-0.006482983008027077,-0.10061880201101303,-0.03323635458946228,0.009445134550333023,0.06515412032604218,-0.04613826051354408,-0.0003252078895457089,-0.03178614750504494,-0.012504201382398605,0.07074880599975586,-0.05824900418519974,-0.02914980985224247,-0.012349949218332767,-0.04848388209939003,-0.049139149487018585,-0.0033787868451327085,0.03212336078286171,0.06682010740041733,0.10635542124509811,0.029161697253584862,0.037730176001787186,-0.03297540172934532,-0.041066914796829224,0.004668234847486019,0.043036457151174545,0.0019617436919361353,0.01312118861824274,-0.031854718923568726,-0.06888601928949356,0.027502043172717094,-0.027636809274554253,-0.07243876159191132,-0.031267452985048294,0.026057006791234016,-0.01711389422416687,0.01120876707136631,-0.05012692138552666,0.027894115075469017,-0.050392281264066696,0.02550148032605648,0.023974215611815453,0.001373991253785789,-0.0031883239280432463,-0.03472557291388512,-0.026998987421393394,-0.03972629830241203,0.022280529141426086,-0.10721087455749512,0.005715290550142527,0.013250572606921196,0.04318590089678764,-0.008946811780333519,0.007186375558376312,-0.018441325053572655,-0.058617495000362396,0.048691604286432266,-0.03041619062423706,-0.014523576013743877,0.05217451974749565,-0.06214848905801773,0.023448752239346504,0.09213180840015411,-0.010355008766055107,0.05427165329456329,0.026430053636431694,-0.0031654515769332647,0.0023501040413975716,-0.007283561863005161,0.03432928025722504,-0.008898609317839146,0.05143015459179878,0.03562266752123833,0.035556185990571976,-0.04234819859266281,0.016697466373443604,-0.004849988967180252,0.08612734079360962,-0.02376539260149002,0.047423701733350754,-0.06467769294977188,-0.025207506492733955,0.042353950440883636,0.02512560598552227,-0.06460721790790558,0.03434423729777336,0.022121384739875793,-0.059978269040584564,0.019491029903292656,-0.046875737607479095,-0.008271086029708385,0.03099585510790348,0.006956856232136488,0.0829283595085144,0.04392712935805321,0.002663214458152652,0.013852866366505623,-0.025774192065000534,-0.0594027079641819,-0.04918185621500015,-0.0206911601126194,0.0544562041759491,-0.025022083893418312,-0.036911167204380035,-0.031449805945158005,-0.049511153250932693,0.01835978589951992,-0.06742425262928009,0.0553027018904686,-0.08749818056821823,-0.006735710892826319,-0.10139942914247513,-0.019737599417567253,0.08168438076972961,0.06326750665903091,-0.024332696571946144,0.010816154070198536,-0.06283456832170486,-0.02538485825061798,0.08968234062194824,-0.03183415159583092,-0.0033286120742559433,-0.002772333798930049,-0.017953969538211823,-0.013037393800914288,-0.05344456434249878,-0.04785163328051567,0.0007410448743030429,-0.06643310189247131,-0.023296261206269264,0.09911996126174927,0.024166671559214592,0.07434511184692383,0.12473811954259872,0.0461096428334713,-0.06414581835269928,-0.024451714009046555,0.012873111292719841,-0.04796981438994408,0.03254576399922371,0.036316145211458206,0.014239701442420483,0.03847760334610939,0.017373593524098396,0.034577514976263046,-0.02609086036682129,-0.03823647275567055,0.012804297730326653,-0.04535428807139397,-0.04270217940211296,0.021260865032672882,0.031747967004776,0.06703361868858337,0.033657342195510864,-0.025001782923936844,0.00600846204906702,0.02943613938987255,-0.02632734924554825,0.01844194158911705,-0.048446908593177795,0.05048366263508797,-0.03858384117484093,-0.033556465059518814,-0.03720343858003616,-0.025618810206651688,-0.0557950995862484,-0.060921069234609604,0.09399307519197464,-0.0020761440973728895,-0.04154359549283981,0.04842940717935562,0.06765995174646378,-0.051781266927719116,-0.04758886992931366,0.03564674034714699,0.0026151882484555244,-0.05763775110244751,-0.04530112072825432,0.0422232486307621,-0.01706872507929802,0.010528216138482094,0.015564837493002415,0.014068488962948322,-0.03616483882069588,0.03902198746800423,0.0052100359462201595,0.031019674614071846,-0.012354238890111446,-0.028381146490573883,0.003237031865864992,-0.002131442306563258,-0.03579604625701904,0.018233522772789,-0.00946857500821352,-0.005105799995362759,-0.0014408965362235904,0.08697405457496643,-0.03081614151597023,0.03596334531903267,0.053561512380838394,0.05002211406826973,-0.0019103155937045813,0.020521255210042,-0.005825229920446873,-0.006449101027101278,-0.029099931940436363,-0.003836344927549362,0.014596367254853249,-0.04652786627411842,-0.01808609627187252,0.03907740116119385,-0.11866006255149841,-0.011626883409917355,0.0728045329451561,0.0574871264398098,-0.11739349365234375,-0.06390988081693649,0.012129304930567741,-0.047679997980594635,-0.029398685321211815,-0.07684540748596191,-0.007756741251796484,-0.014469631016254425,0.032883595675230026,0.07181864976882935,-0.044288985431194305,0.0003427100309636444,-0.04730011895298958,0.0024882510770112276,0.06520499289035797,0.09015863388776779,0.013558827340602875,0.10844862461090088,0.04574831947684288,-0.020478371530771255,-0.025526082143187523,0.0427272655069828,0.026555752381682396,-0.012475226074457169,-0.013110785745084286,-0.043587278574705124,0.007078307680785656,0.01152858417481184,0.044002827256917953,0.008484946563839912,-0.05471060797572136,-0.009520051069557667,0.024673955515027046,-0.023369845002889633,0.05321068316698074,0.04298924282193184,-0.10575459152460098,0.009839415550231934,-0.007078885566443205,-0.027429360896348953,-0.0389862023293972,-0.04374438151717186,0.054627615958452225,0.07227232307195663,-0.05855840444564819,0.03269241377711296,0.059777725487947464,-0.039878860116004944,-0.01534227840602398,0.05308697745203972,-0.018902825191617012,-0.014395401813089848,-0.037686675786972046,-0.015239818021655083,0.030252743512392044,0.03187134116888046,0.04808061569929123,0.017469624057412148,0.028259776532649994,0.006810859777033329,0.01870962418615818,-0.039946217089891434,0.07991336286067963,-0.027748240157961845,0.07358937710523605,-0.07132357358932495,0.06178904324769974,0.03001168929040432,0.04844272881746292,0.03255494311451912,-0.05596139654517174,0.055308859795331955,-0.002698660595342517,-0.02604079246520996,0.0407719723880291,0.04869069531559944,0.055045343935489655,-0.04193546250462532,-0.0036565156187862158,0.012467809952795506,-0.03787362948060036,0.0297749862074852,-0.002100100740790367,0.08137328922748566,0.02220221795141697,-0.00565266702324152,0.003356786910444498,-0.010017790831625462,0.016424117609858513,-0.015346787869930267,0.02109106443822384,-0.031042778864502907,-0.06374514102935791,0.05460019409656525,0.019535472616553307,-0.04073135182261467,-0.004434347618371248,0.020993977785110474
ID00014637202177757139317,0.015660947188735008,-0.10981816798448563,-0.0025237880181521177,0.028057977557182312,0.025326283648610115,-0.014220062643289566,-0.008843540214002132,-0.07411901652812958,-0.029588205739855766,-0.08479014784097672,-0.0338435098528862,0.04901066794991493,0.038942646235227585,-0.0028523991350084543,-0.030620887875556946,-0.09519869089126587,0.02689802087843418,0.026672882959246635,-0.008568224497139454,-0.03232432156801224,-0.037636712193489075,-0.039058830589056015,0.09054116904735565,-0.0007857930031605065,-0.023296227678656578,0.011241580359637737,0.02129838615655899,-0.01486990787088871,-0.038424037396907806,0.02192247286438942,0.015574171207845211,-0.029220758005976677,-0.0553460456430912,-0.03084079921245575,0.017028899863362312,-0.05166258290410042,0.006844681221991777,-0.05741940811276436,-0.09031195938587189,0.0049026720225811005,-0.025829913094639778,-0.013190173543989658,-0.08482611924409866,-0.05591529607772827,0.004656022880226374,-0.08374278992414474,-0.023106275126338005,-0.0763407051563263,0.017280105501413345,-0.008163451217114925,0.011615057475864887,0.0135998809710145,-0.07820966094732285,-0.06429541110992432,0.041763901710510254,-0.06818944960832596,0.030026623979210854,-0.02440784126520157,-0.002771817846223712,-0.020242590457201004,-0.008956639096140862,-0.004619653802365065,0.005160808097571135,0.05126592144370079,-0.004119229037314653,-0.0654003918170929,-0.0036042772699147463,-0.06723380088806152,-0.012929041869938374,0.01146914716809988,-0.025327274575829506,0.05118747428059578,-0.0876721441745758,-0.07104210555553436,0.07346022129058838,-0.03865499794483185,0.06941509246826172,0.021453475579619408,-0.03443543240427971,0.04169188812375069,0.00716266967356205,-0.030990345403552055,0.041132066398859024,-0.0011258439626544714,-0.005092584062367678,-0.008893491700291634,-0.005675692111253738,0.03688032552599907,-0.02260449342429638,0.08456284552812576,-0.0054291062988340855,-0.018136370927095413,0.01268413383513689,-0.05428576096892357,0.008534060791134834,-0.039577316492795944,0.014575186185538769,0.017048507928848267,-0.059950634837150574,-0.01936713606119156,-0.00208147126249969,-0.03832598403096199,-0.015586983412504196,-0.09713595360517502,0.04361121356487274,0.0005677057197317481,-0.043014898896217346,0.022374527528882027,0.03386668860912323,0.08235771954059601,-0.06912246346473694,0.08395837247371674,-0.05744282901287079,-0.01228042971342802,0.05634200572967529,0.05186651647090912,0.05029260739684105,0.05487898364663124,0.04315997660160065,-0.04898735135793686,0.007475415710359812,0.05408082529902458,0.008585740812122822,-0.020141003653407097,-0.010062512010335922,-0.04784276708960533,-0.031505342572927475,-0.05075882375240326,0.047893598675727844,0.03474966436624527,-0.022920552641153336,0.03183455765247345,0.026543887332081795,0.015639157965779305,0.02935160882771015,0.055905696004629135,0.016964389011263847,-0.03387396037578583,0.00030035796226002276,0.03684552386403084,0.06399114429950714,0.06255609542131424,-0.02680244669318199,0.018063923344016075,0.04102456197142601,0.03497596085071564,0.03417559340596199,-0.036139436066150665,0.02194388210773468,0.009938552044332027,0.03524981811642647,-0.06768781691789627,0.06814965605735779,0.031436607241630554,-0.007099366746842861,0.020300794392824173,-0.046147823333740234,-0.055047713220119476,-0.027776889503002167,0.02848486788570881,-0.03267715871334076,-0.060659345239400864,-0.025100456550717354,0.03658844158053398,-0.030471719801425934,0.005335680209100246,0.03308675065636635,0.058749008923769,-0.053193558007478714,0.030571594834327698,-0.006602156441658735,-0.012187081389129162,0.0676518976688385,-0.041887857019901276,0.006384538020938635,-0.031932488083839417,-0.04098391905426979,-0.029724042862653732,-0.02907378412783146,-0.01531591173261404,0.011763586662709713,-0.017630400136113167,-0.017408786341547966,0.037807635962963104,-0.02128829061985016,0.011739342473447323,-0.015371328219771385,0.09527835994958878,-0.013988074846565723,0.06722438335418701,0.061584025621414185,-0.041156135499477386,0.003571504494175315,0.026101557537913322,0.04131527617573738,-0.027689332142472267,-0.02919791452586651,-0.10292959958314896,-0.04250538349151611,0.01060544140636921,0.005996527150273323,-0.008533932268619537,-0.02603059634566307,0.10418590903282166,0.06761837005615234,-0.0544220395386219,0.060481440275907516,0.0007099827635101974,0.02346402034163475,0.1040974035859108,-0.055336643010377884,-0.0871865451335907,0.04343486204743385,-0.03204149007797241,-0.056554943323135376,-0.053698185831308365,0.03877539932727814,-0.013432553969323635,0.09385405480861664,0.012905864976346493,0.04027984291315079,-0.04474722966551781,-0.050848107784986496,-0.0013066299725323915,-0.038230303674936295,-0.015897106379270554,-0.045990027487277985,-0.0064576417207717896,0.007448758464306593,0.0039809346199035645,-0.007139137480407953,-0.005216918420046568,-0.048550549894571304,0.013706090860068798,0.0050759329460561275,-0.06978532671928406,-0.01711403764784336,0.00034744568984024227,0.05713975429534912,-0.03233162686228752,0.04591499641537666,0.03990260511636734,0.0654342770576477,0.003918602596968412,-0.05613113194704056,-0.09066188335418701,-0.03791017085313797,0.0005661104223690927,0.023302199319005013,-0.09870649129152298,-0.008417780511081219,-0.038245633244514465,-0.002469356870278716,0.06674880534410477,0.02859695814549923,0.05977664887905121,-0.034164369106292725,0.031354501843452454,-0.10733910650014877,-0.07561423629522324,-0.025644883513450623,0.047163527458906174,-0.004730516579002142,0.02472594380378723,0.0671076700091362,0.0347740612924099,0.027004299685359,-0.03077850490808487,0.027532126754522324,-0.0464787632226944,0.00537077384069562,0.003964039497077465,0.013116326183080673,-0.07465607672929764,0.03884178027510643,-0.03714707866311073,0.09227382391691208,0.026339028030633926,-0.00819898396730423,-0.010499190539121628,-0.04595290124416351,-0.0229153074324131,-0.007593823596835136,-0.0037148192059248686,0.026697665452957153,0.053950659930706024,-0.024941375479102135,-0.04988785460591316,-0.02165091037750244,-0.009504765272140503,-0.00718226982280612,-0.05873192474246025,-0.0030302847735583782,0.04309667646884918,0.015701383352279663,-0.002545954193919897,0.03683870658278465,0.003892673645168543,0.006274361629039049,-0.07284422963857651,-0.09243175387382507,0.004483838565647602,0.026513366028666496,-0.013193152844905853,-0.07967550307512283,-0.062075190246105194,-0.0201458390802145,-0.0023178483825176954,-0.007966459728777409,-0.012246486730873585,0.061771295964717865,-0.05630786344408989,0.022854499518871307,0.02340482920408249,-0.014527118764817715,0.008312303572893143,-0.013086332939565182,0.013972712680697441,0.029000872746109962,0.038630250841379166,-0.01417773962020874,-0.02216154895722866,-0.03559887781739235,-0.05100325122475624,-0.0086942408233881,0.060142844915390015,0.005597548093646765,0.06580660492181778,-0.05789784714579582,-0.07002086937427521,0.005419621244072914,0.04245646297931671,-0.013185211457312107,0.0595867894589901,0.08841639012098312,-0.03682893142104149,-0.009970025159418583,-0.04806828498840332,0.032643772661685944,0.062196239829063416,-0.07783111929893494,0.040804408490657806,0.035650577396154404,0.017564797773957253,0.0008897093357518315,-0.04951627179980278,0.020842324942350388,0.02897973544895649,-0.044579412788152695,-0.06403685361146927,-0.0446467250585556,0.07000628858804703,0.013967599719762802,-0.02963714860379696,0.0015968207735568285,0.0936533734202385,0.008406668901443481,-0.05267168581485748,-0.0870642438530922,0.037056513130664825,-0.08416672050952911,0.006273353938013315,-0.029591158032417297,0.05484020337462425,0.0319344699382782,0.002412346890196204,0.04505126178264618,-0.03522965684533119,0.05466684326529503,0.05686183273792267,0.09701019525527954,-0.005558806471526623,0.020572291687130928,-0.04211108759045601,-0.020551299676299095,2.982907790283207e-05,-0.05914735421538353,0.0031722330022603273,0.011903837323188782,-0.05132081359624863,-0.1126747652888298,-0.0005132301594130695,0.03561205416917801,-0.021536540240049362,0.010311315767467022,-0.0003333933127578348,-0.08236046135425568,0.04379400983452797,-0.01139045786112547,0.03920026123523712,-0.05258043482899666,0.10372404754161835,-0.06055686995387077,0.01950216107070446,0.06829375773668289,-0.005976986605674028,-0.01898297853767872,-0.013608863577246666,0.058407243341207504,0.03916477784514427,-0.08173125237226486,0.01968894526362419,0.07348524034023285,0.052178122103214264,0.01177092082798481,-0.021169107407331467,0.011944561265408993,-0.06457275152206421,-0.0717930719256401,0.056417327374219894,0.030663499608635902,0.0007572909817099571,0.03261799365282059,0.008512170985341072,0.06792071461677551,0.02529962547123432,-0.01528351753950119,-0.04947704076766968,-0.025798916816711426,0.028572771698236465,0.01166409533470869,-0.005140984896570444,0.03353939950466156,0.06348809599876404,0.06226026639342308,0.030188746750354767,-0.08766867965459824,0.009621985256671906,0.06760693341493607,0.06120289862155914,-0.051588721573352814,0.04548445716500282,0.06641359627246857,-0.004194124601781368,0.03202090784907341,-0.07859082520008087,-0.03109367936849594,-0.04495181143283844,0.0475892648100853,0.06950876861810684,-0.036788757890462875,0.02617644891142845,0.014929849654436111,0.02098810113966465,-0.00741761876270175,0.0034775412641465664,-0.0035475201439112425,0.0692346915602684,0.04623908922076225,0.004081972409039736,-0.03319092094898224,-0.1327088624238968,0.07687351852655411,2.2521613573189825e-05,-0.0008115767268463969,-0.048708654940128326,-0.003506477689370513,-0.007923603989183903,-0.005936446134001017,-0.04710633307695389,0.06393039226531982,-0.05793460085988045,0.09108415991067886,-0.01206597313284874,0.03373252972960472,-0.00839117169380188,-0.01111359428614378,0.07860869914293289,-0.02819661982357502,0.005971207749098539,-0.03608690947294235,-0.014840011484920979,0.032370675355196,-0.048238612711429596,0.04162635654211044,0.0067566921934485435,0.033530496060848236,-0.06554251909255981,-0.03797309845685959,-0.032641369849443436,-0.029984386637806892,-0.00024642946664243937,-0.034453850239515305,-0.0377824604511261,-0.056765973567962646,-0.021334081888198853,0.026842910796403885,0.022937338799238205,0.08224879950284958,0.0017143695149570704,0.01276288740336895,-0.03289473056793213,0.0476573184132576,0.03150586411356926,-0.06802134215831757,-0.009182877838611603,0.08381260186433792,0.0014234050177037716,0.006289354525506496,-0.05643833428621292,0.02073105238378048,0.06186452880501747,0.05607180669903755,-0.01581859402358532,-0.052043065428733826,-0.005302385427057743,-0.004615237936377525,0.026607709005475044,0.04938643053174019,-0.027596764266490936,-0.009412409737706184,-0.022026732563972473
ID00015637202177877247924,0.04380541667342186,-0.040667351335287094,0.001303320750594139,-0.006533600855618715,0.02792062796652317,-0.06630280613899231,-0.05176379159092903,-0.06623189151287079,-0.0989619791507721,0.022777335718274117,-0.0379115454852581,-0.03390533849596977,0.03372166305780411,0.005787387024611235,0.015797285363078117,0.0007779120351187885,-0.01269468478858471,0.025969285517930984,-0.0048589445650577545,0.019978642463684082,-0.058117859065532684,-0.025191087275743484,0.0007958285277709365,-0.088468998670578,0.02415449731051922,0.06836627423763275,0.016295062378048897,-0.007816719822585583,0.04276294261217117,0.05535444989800453,-0.05666133761405945,-0.043322451412677765,-0.0015875750686973333,-0.021840058267116547,0.08932865411043167,-0.08696726709604263,0.008218267932534218,0.024454932659864426,-0.05029264837503433,0.06414660066366196,-0.08013824373483658,-0.0648425742983818,0.006144237704575062,-0.02400093525648117,0.019487345591187477,-0.05792992189526558,0.0005280739860609174,-0.049398116767406464,0.05839594453573227,-0.00947349239140749,-0.009740948677062988,0.00849256943911314,-0.07963922619819641,-0.044175129383802414,0.08652185648679733,-0.026912935078144073,0.0038635244127362967,0.07174062728881836,0.047272179275751114,-0.054313916712999344,0.024812083691358566,-0.03573831543326378,0.013006607070565224,0.06806062161922455,-0.10336186736822128,0.0029478876385837793,-0.05978363752365112,0.019754279404878616,0.00806682463735342,-0.022647371515631676,0.033780451864004135,0.03091532550752163,-0.03756190463900566,-0.07780642062425613,0.010668458417057991,-0.025291653349995613,0.04438179358839989,0.08492273837327957,0.02127745747566223,0.004474057350307703,0.01173650287091732,-0.04375077039003372,0.025112157687544823,0.0076224468648433685,0.06860661506652832,-0.013328343629837036,-0.04397232457995415,0.023385848850011826,-0.00604278314858675,-0.01629032753407955,-0.022771213203668594,-0.014609217643737793,-0.05610354617238045,-0.0041380375623703,0.023081058636307716,0.019786540418863297,0.009906168095767498,0.08801212161779404,0.009223501197993755,-0.07660245150327682,0.04652766138315201,-0.026265231892466545,-0.0416436567902565,-0.0046311537735164165,0.04179203882813454,-0.017619987949728966,-0.04239716753363609,-0.04963446035981178,0.015941215679049492,-0.0078049274161458015,-6.914734967722325e-06,0.05509967356920242,0.04181060940027237,-0.06553122401237488,0.06782256811857224,0.07261250168085098,0.056920479983091354,0.010404768399894238,0.035504695028066635,-0.08188069611787796,-0.025332096964120865,0.046692490577697754,0.012942163273692131,-0.060712240636348724,0.025984197854995728,0.0004495831672102213,-0.03147518262267113,-0.032638370990753174,0.0810810849070549,0.02807268500328064,0.01457271259278059,0.015539196319878101,0.038914889097213745,0.09274142980575562,-0.0288778617978096,-0.006787208374589682,-0.010365608148276806,-0.046704985201358795,-0.03199944272637367,0.0706389844417572,0.01983856037259102,-0.01871580258011818,-0.025240451097488403,-0.03696463629603386,0.06910377740859985,0.06778749078512192,-0.008505048230290413,-0.07652437686920166,0.0007247259491123259,-0.014621058478951454,-0.004760642070323229,-0.06148643046617508,0.10800467431545258,-0.0017861126689240336,0.036741361021995544,-0.005462444853037596,-0.04161859676241875,9.925789345288649e-05,0.003355498192831874,-0.03892207145690918,0.06453137844800949,0.08560054004192352,0.01583707705140114,0.01253244373947382,-0.04812609404325485,0.09630359709262848,0.04954710602760315,0.0005995815736241639,-0.051446083933115005,-0.002258298685774207,-0.0770457461476326,-0.0008328898111358285,-0.02094646915793419,0.01983717828989029,-0.023931197822093964,0.027092767879366875,0.005020874086767435,0.03596093878149986,0.03587845712900162,-0.03614652529358864,-0.006031420081853867,0.014148966409265995,-0.07305159419775009,0.07915753126144409,-0.07359743118286133,0.028400933369994164,-0.01544739119708538,0.01315031573176384,0.005895176436752081,0.0177792739123106,0.059361979365348816,-0.025191323831677437,-0.042360175400972366,-0.0073670754209160805,0.02555573172867298,0.0504920519888401,0.07150425016880035,-0.08580649644136429,-0.06515037268400192,0.033127158880233765,0.04000000283122063,-0.062009941786527634,-0.018341194838285446,0.04007704183459282,0.07009007036685944,-0.043982796370983124,0.012052659876644611,-0.05587471276521683,-0.02117772027850151,0.06238815560936928,-0.05285269394516945,-0.01625211350619793,0.05975055322051048,-0.05215417593717575,-0.09826270490884781,-0.01306946575641632,0.0196936447173357,0.0449325293302536,0.06850482523441315,0.03096696548163891,0.060466691851615906,-0.013624518178403378,-0.05380389839410782,0.03231862559914589,0.006154232192784548,0.001845738384872675,0.0011246121721342206,-0.042682450264692307,-0.1027953177690506,0.06262795627117157,-0.007602444849908352,-0.061538346111774445,-0.0886436328291893,0.05033370107412338,-0.0033148620277643204,0.03801321983337402,-0.02914401888847351,-0.005868910346180201,-0.012185155414044857,0.020110290497541428,0.045819006860256195,0.02015814557671547,0.02697843685746193,-0.056337423622608185,-0.04579131677746773,0.01344083622097969,-0.04276466742157936,-0.11590096354484558,-0.010525903664529324,-0.0315048024058342,0.03532680124044418,-0.03242228925228119,0.008193396963179111,0.016009241342544556,-0.06198801472783089,0.008086935617029667,0.017463434487581253,0.04846436530351639,0.0025276390369981527,-0.03826093673706055,0.006831195671111345,0.07556714117527008,-0.034637127071619034,0.03867853432893753,0.03354306519031525,0.02150237187743187,0.03842001408338547,0.030078450217843056,0.02461525984108448,-0.07111788541078568,0.08601304143667221,0.04307059198617935,-0.0023401700891554356,-0.006475605070590973,-0.011952383443713188,-0.051856350153684616,0.08917126059532166,0.020314941182732582,0.06307413429021835,-0.03563116490840912,-0.014450415037572384,0.06651514023542404,0.03743792325258255,-0.07574350386857986,0.016217632219195366,0.007837635464966297,-0.03417250141501427,-0.004078052006661892,-0.056371450424194336,-0.04070644825696945,0.03840514272451401,0.020357608795166016,0.03303728252649307,0.054895322769880295,0.032855454832315445,0.01150473952293396,-0.007562178652733564,-0.04588799923658371,-0.02759833075106144,0.009013060480356216,0.0262430552393198,-0.03663294389843941,-0.03213534876704216,-0.04947321116924286,-0.046837128698825836,-0.04775453731417656,-0.09671419858932495,0.048933763056993484,-0.02006436325609684,-0.004605289548635483,-0.032654501497745514,-0.0346161350607872,0.06527090072631836,-0.03508483245968819,-0.05242724344134331,0.022092053666710854,-0.06452902406454086,-0.022239524871110916,0.0822295993566513,0.03494091331958771,0.032820411026477814,-0.0041905539110302925,-0.00788105558604002,-0.002359227742999792,-0.026170650497078896,0.027450768277049065,0.032976653426885605,-0.004545272793620825,-0.027079034596681595,0.011280704289674759,0.037197671830654144,0.09334708750247955,0.07884835451841354,0.06634741276502609,0.01212687510997057,-0.025779638439416885,0.03256186097860336,-0.05303937569260597,-0.00745139317587018,0.007873632945120335,-0.021588440984487534,0.07553981244564056,-0.02401318959891796,0.050397176295518875,-0.08311077952384949,0.004433854017406702,0.019092485308647156,-0.030009688809514046,-0.052857331931591034,-0.04679805040359497,0.015506371855735779,0.06501472741365433,0.044464465230703354,-0.029239894822239876,0.048819102346897125,0.05985316261649132,-0.022938089445233345,0.012058987282216549,-0.0672253668308258,0.0725044310092926,-0.03389550372958183,-0.05801893770694733,-0.0622653104364872,0.046238012611866,0.03177257254719734,-0.014753173105418682,0.03513993322849274,0.053383808583021164,-0.05108955129981041,0.03965563327074051,0.012875801883637905,-0.003271527122706175,-0.050593823194503784,-0.0034195580519735813,0.012567739002406597,-0.07637173682451248,-0.014660103246569633,0.01772344671189785,-0.05717536434531212,-0.010744220577180386,-0.04303332418203354,0.05553741753101349,-0.0417499877512455,0.052439913153648376,0.026849165558815002,-0.004961668513715267,-0.037770576775074005,-0.03422170877456665,0.0269409641623497,0.02241981402039528,-0.0410647988319397,0.06956014782190323,0.02503938227891922,-0.03079957515001297,0.021303534507751465,0.059230394661426544,-0.0244880523532629,0.007777285762131214,0.06180230528116226,0.020173758268356323,0.0026694380212575197,-0.011702286079525948,0.048137109726667404,-0.0045804050751030445,0.017809199169278145,-0.07107129693031311,0.028738344088196754,-0.022510498762130737,-0.00537913991138339,0.07372422516345978,-0.024337835609912872,0.03659545257687569,0.06143944710493088,0.04545731469988823,-0.07803986966609955,-0.019817814230918884,-0.04952168092131615,0.002181129762902856,-0.039118919521570206,-0.035191860049963,0.0073212566785514355,-0.010102558881044388,0.04836323484778404,0.10292113572359085,0.007720448076725006,-0.004040117841213942,-0.05982551351189613,0.06782860308885574,0.06593514233827591,0.05988028272986412,-0.000497493427246809,0.07014008611440659,0.03409794345498085,0.04784303903579712,-0.02213134616613388,0.04322401061654091,-0.030528392642736435,-0.06533309817314148,-0.012690470553934574,-0.006940110120922327,0.05858819559216499,-0.008065280504524708,-0.013494927436113358,0.012302196584641933,-0.04951636120676994,0.023832768201828003,-0.019522760063409805,0.05905640125274658,0.07238469272851944,0.004811646416783333,-0.11178846657276154,0.0044459630735218525,0.019913198426365852,-0.0060271830298006535,0.009807181544601917,-0.05820617824792862,0.03605831786990166,0.059370510280132294,-0.02306484803557396,0.03318716585636139,0.09512360394001007,-0.017382342368364334,0.03484467789530754,0.020308520644903183,0.0005535035161301494,0.037756551057100296,0.01213613711297512,-0.020033251494169235,-0.013075905852019787,-0.028659077361226082,0.058421190828084946,0.001788920140825212,0.0672876164317131,-0.02709854021668434,-0.0026245214976370335,-0.011797120794653893,0.06287746876478195,-0.028735484927892685,0.015241776593029499,-0.11151084303855896,-0.004813711624592543,0.02151932567358017,0.0790969505906105,-0.013073046691715717,-0.06788122653961182,0.06527422368526459,0.014073804020881653,0.012389778159558773,0.06681718677282333,0.03576451539993286,0.031505536288022995,-0.006163433194160461,-0.001937815104611218,0.0642985999584198,-0.016146671026945114,0.042213715612888336,-0.02266743779182434,0.06759350001811981,0.07681909948587418,-0.006807717494666576,-0.042581167072057724,0.06433162838220596,0.03275647759437561,-0.04223217815160751,0.004520092625170946,-0.010086744092404842,-0.047385118901729584,0.015663644298911095,0.029942063614726067,-0.0034568042028695345,-0.022805022075772285,0.025438103824853897
ID00019637202178323708467,-0.025036416947841644,-0.0343688502907753,-0.023691873997449875,-0.0591614730656147,0.009939437732100487,0.022040989249944687,-0.019773242995142937,-0.03956294804811478,0.03256197273731232,-0.03793613240122795,0.04098745808005333,0.05577566474676132,0.010892593301832676,0.053633954375982285,-0.02476361021399498,0.009289594367146492,-0.01568720117211342,0.043413545936346054,-0.06712745875120163,-0.003197751007974148,-0.005375842098146677,0.006828582379966974,0.01975831761956215,0.014490623958408833,-0.0589975081384182,0.09607532620429993,0.04836024343967438,0.017502592876553535,0.004693400580435991,0.008009902201592922,-0.024608798325061798,-0.04935527592897415,-0.043576523661613464,-0.05162240192294121,0.06988811492919922,-0.05621630325913429,-0.03534712269902229,0.03950086981058121,-0.09186756610870361,0.006714880932122469,-0.022642068564891815,-0.015053010545670986,-0.030735047534108162,-0.06864876300096512,0.014038432389497757,-0.01908419467508793,0.0216500423848629,-0.05789923667907715,0.042033109813928604,0.007140998728573322,0.03485598415136337,0.05495353415608406,-0.059189580380916595,-0.07640277594327927,0.05068272352218628,0.004485880956053734,-0.0032235051039606333,0.02324003539979458,0.006264713127166033,0.021366408094763756,-0.03544595465064049,0.03586317226290703,0.008483992889523506,0.03731419891119003,-0.04391364008188248,-0.05299554765224457,-0.06385120004415512,0.010584675706923008,0.06800457090139389,-0.0070299250073730946,0.05131379887461662,-0.019050391390919685,-0.05611414462327957,-0.02660529874265194,-0.04871593043208122,0.0034063258208334446,0.06804583966732025,0.020649155601859093,0.04954991489648819,-0.09545394778251648,-0.07761622965335846,0.00361794070340693,-0.008104944601655006,-0.007501285057514906,0.0151663264259696,-0.00792686641216278,-0.004093250259757042,0.03041802905499935,-0.032878074795007706,-0.0037180655635893345,-0.03592652082443237,-0.033244989812374115,-0.015323936939239502,-0.018977077677845955,-0.0038043903186917305,0.016978958621621132,0.045905180275440216,0.021515987813472748,-0.0194205604493618,-0.0808786004781723,0.07801976054906845,-0.057596538215875626,-0.030924728140234947,-0.06235266104340553,0.08604923635721207,-0.00021854124497622252,-0.04138006269931793,-0.0026543615385890007,0.037368856370449066,0.054781194776296616,-0.02403435856103897,0.0901891365647316,-0.017010264098644257,0.04528661072254181,0.04223165288567543,0.056131526827812195,0.06088773533701897,-0.024776749312877655,0.04905552789568901,-0.0696406364440918,-0.04254494607448578,0.08298236131668091,-0.01942482963204384,-0.07982474565505981,0.07382725179195404,-0.04854807257652283,0.004429063759744167,-0.051541175693273544,0.03806512802839279,-0.01314107608050108,0.07249867916107178,0.0269680954515934,-0.022090423852205276,0.004450897686183453,0.05831029266119003,0.01091460045427084,-0.010883579961955547,-0.05459345877170563,-0.01963408850133419,0.0717070922255516,0.03769024461507797,-0.05899734050035477,-0.10469802469015121,0.02054840698838234,0.00425728177651763,0.034616418182849884,0.0493026040494442,0.05633510649204254,-0.01262699905782938,-0.019199324771761894,-0.027454594150185585,0.008400003425776958,0.016225460916757584,-0.04933642968535423,0.015070012770593166,-0.0046054041013121605,0.04026748985052109,-0.03929133713245392,0.07267734408378601,-0.017170613631606102,-0.023090237751603127,0.01124581042677164,0.0022035136353224516,0.024504924193024635,-0.012711402028799057,0.06649734824895859,0.008380978368222713,-0.013479391112923622,0.006635105703026056,-0.02144484594464302,0.011878843419253826,0.019445735961198807,0.06154976040124893,-0.02430531196296215,0.009750663302838802,-0.06978248059749603,-0.07686255872249603,-0.017573071643710136,-0.027337361127138138,0.037835124880075455,-0.023453406989574432,0.0368475578725338,-0.060809969902038574,0.005091729108244181,-0.038144130259752274,0.06973204016685486,0.007724590599536896,0.024616515263915062,0.02255120687186718,0.018489154055714607,-0.00012179480836493894,0.03080868348479271,-0.057831745594739914,-0.07703482359647751,0.06330950558185577,-0.021352171897888184,-0.004097882192581892,-0.07473785430192947,-0.05818086862564087,0.024895984679460526,-0.06896382570266724,-0.0516468770802021,-0.008224424906075,0.09733568131923676,0.04740872606635094,-0.04146403446793556,0.040469951927661896,0.013264104723930359,0.007646768819540739,0.06387920677661896,-0.07121901214122772,-0.05688716098666191,0.04113324359059334,-0.0547754168510437,-0.02936628647148609,0.019739290699362755,0.02494208514690399,0.07386767864227295,0.07620888948440552,0.07200057804584503,0.0511692613363266,-0.017211563885211945,-0.06780833750963211,-0.01531354058533907,0.010167507454752922,0.000998079776763916,0.00028618774376809597,-0.011857177130877972,-0.07676688581705093,-0.028534574434161186,-0.06704656779766083,-0.01843854784965515,-0.046913959085941315,0.05367282032966614,-0.005857081618160009,-0.026402615010738373,-0.00675902608782053,-0.043947696685791016,0.013171046040952206,0.05873516574501991,0.012681664898991585,-0.00729332072660327,0.057733479887247086,-0.009008671157062054,-0.06093579903244972,-0.10004429519176483,-0.08234988898038864,-0.0799780935049057,-0.038923196494579315,-0.06412574648857117,0.0493210107088089,-0.019084466621279716,-0.007056069560348988,-0.021378610283136368,-0.06297248601913452,0.05102703720331192,-0.04027774930000305,-0.020236507058143616,-0.005726679693907499,-0.12538664042949677,-0.04117186367511749,0.06586907804012299,0.04207013174891472,0.02562970109283924,-0.015344143845140934,0.04200635477900505,0.028661848977208138,0.006929158233106136,0.08697085082530975,-0.010449303314089775,0.0009444975294172764,0.05762249231338501,0.0682499036192894,-0.09883327037096024,0.006937547121196985,0.04533841460943222,0.11725163459777832,-0.0057375687174499035,0.02647196128964424,-0.01705756224691868,-0.06628783792257309,0.03101346082985401,0.014176185242831707,-0.008964759297668934,0.00580659369006753,-0.010848474688827991,-0.05577535182237625,0.005346640013158321,-0.026795292273163795,-0.04070478305220604,0.006898933555930853,0.004150984808802605,0.012665378861129284,0.05256335064768791,-0.03985343873500824,-0.04747134819626808,0.03127085417509079,-0.045486826449632645,0.014676010236144066,-0.057591479271650314,-0.03505483642220497,-0.030395090579986572,-0.04610864818096161,-0.06086653470993042,-0.05659284070134163,0.04177349805831909,-0.02691641077399254,0.01079536136239767,-0.04415510967373848,0.004928928334265947,0.021595347672700882,0.03398436680436134,0.05506344512104988,0.03894739970564842,-0.060956042259931564,0.012200240045785904,-0.04226413369178772,0.03989861160516739,0.07894479483366013,0.02306453511118889,0.0003747721202671528,0.006852279417216778,0.04848967120051384,-0.059658125042915344,-0.02449154295027256,0.031541697680950165,-0.02346593327820301,0.002265690127387643,-0.032355792820453644,0.04389023408293724,-0.048133738338947296,0.04214012995362282,0.06965164840221405,0.0802217498421669,0.03193812072277069,0.028722094371914864,0.023306764662265778,-0.06250922381877899,0.025912709534168243,0.008897466585040092,0.01478703785687685,0.0666942447423935,0.035511329770088196,-0.028267426416277885,-0.07621235400438309,0.010398236103355885,0.06798778474330902,-0.04632381349802017,-0.062063414603471756,0.020906826481223106,0.05596017464995384,0.08146005868911743,-0.0048437644727528095,-0.040996357798576355,-0.04301510378718376,-0.003794871037825942,0.009766342118382454,-0.023760411888360977,-0.09514948725700378,0.023760706186294556,-0.0731148049235344,-0.013610496185719967,0.0071897185407578945,-0.025189142674207687,-0.10716795176267624,-0.0446624830365181,0.04517953097820282,-0.03460794687271118,0.04974256083369255,0.001098728273063898,0.0627443864941597,-0.050588954240083694,-0.009328128769993782,-0.06195971742272377,0.0006987848901189864,-0.0361090712249279,-0.056453973054885864,-0.024804862216114998,-0.02568039856851101,0.017385810613632202,-0.009844960644841194,-0.03307439386844635,0.040916360914707184,-0.019702574238181114,0.00023760269687045366,0.0026705849450081587,-0.019280454143881798,0.07244791090488434,0.021078094840049744,-0.023269345983862877,-0.05622202157974243,0.03134701028466225,-0.037549104541540146,0.05808523669838905,0.03247764706611633,0.040531303733587265,-0.011637557297945023,0.038983624428510666,0.06304538249969482,0.030335094779729843,-0.09036856889724731,0.0305299274623394,0.03229625150561333,0.03437181934714317,-0.05617453157901764,-0.05053775757551193,0.046892762184143066,-0.10450856387615204,-0.0749422088265419,0.05084532871842384,-0.08650301396846771,-0.06228367239236832,0.03307190164923668,0.06848028302192688,-0.055604882538318634,-0.012110631912946701,0.030845914036035538,-0.07977229356765747,-0.049739986658096313,0.009126270189881325,0.026030393317341805,-0.03307152912020683,0.05757944658398628,0.07295950502157211,0.026913326233625412,-0.03734636679291725,-0.021514426916837692,-0.029997173696756363,0.04788311570882797,0.0734114944934845,-0.013568973168730736,0.054752565920352936,0.012189851142466068,-0.0009721698006615043,0.04356344789266586,-0.005165556911379099,-0.02407245524227619,-0.028811626136302948,0.07456709444522858,0.02586914598941803,-0.026320388540625572,0.037054333835840225,-0.013617155142128468,0.05345231294631958,-0.029918335378170013,0.04675561189651489,0.0843922346830368,-0.0008989174384623766,0.035160358995199203,0.03521151468157768,-0.034571338444948196,-0.05817309767007828,-0.03262820094823837,0.012044859118759632,-0.015435591340065002,-0.023189103230834007,-0.01046664360910654,-0.024633338674902916,0.003922141622751951,0.03613101318478584,0.1197429746389389,-0.04615521430969238,0.0527871698141098,-0.015413545072078705,-0.05005078390240669,-0.021478241309523582,-0.01873892918229103,-0.0033800823148339987,0.021328959614038467,0.03447930887341499,0.011410671286284924,0.0014102032873779535,0.04434883967041969,-0.015905583277344704,0.024599026888608932,-0.020999744534492493,0.04444519430398941,-0.0694369524717331,-0.0321311391890049,0.025636347010731697,-0.0074259559623897076,-0.030487002804875374,0.03543981537222862,-0.04649549722671509,-0.03769424185156822,-0.030475901439785957,-0.023305431008338928,0.0003703697002492845,0.057107824832201004,0.03312791883945465,0.06810763478279114,-0.09871628135442734,0.03979840874671936,-0.03119903989136219,-0.040855515748262405,-0.0526852011680603,0.039700958877801895,0.0019145604455843568,0.01485502254217863,-0.006751986686140299,0.03593774139881134,-0.002237604698166251,0.001158396597020328,-0.048024460673332214,-0.007126576267182827,0.008674112148582935,-0.07504795491695404,0.08119333535432816,0.016844531521201134,0.018348325043916702,0.013953416608273983,0.024064552038908005
